<?xml version="1.0"?>
<opencv_storage>
<cascade>
  <stageType>BOOST</stageType>
  <featureType>HAAR</featureType>
  <height>40</height>
  <width>80</width>
  <stageParams>
    <boostType>GAB</boostType>
    <minHitRate>9.9900001287460327e-01</minHitRate>
    <maxFalseAlarm>5.0000000000000000e-01</maxFalseAlarm>
    <weightTrimRate>9.4999999999999996e-01</weightTrimRate>
    <maxDepth>1</maxDepth>
    <maxWeakCount>100</maxWeakCount></stageParams>
  <featureParams>
    <maxCatCount>0</maxCatCount>
    <featSize>1</featSize>
    <mode>BASIC</mode></featureParams>
  <stageNum>20</stageNum>
  <stages>
    <!-- stage 0 -->
    <_>
      <maxWeakCount>9</maxWeakCount>
      <stageThreshold>-2.0313575267791748e+00</stageThreshold>
      <weakClassifiers>
        <_>
          <internalNodes>
            0 -1 5 -1.0798913240432739e-01</internalNodes>
          <leafValues>
            4.8160535097122192e-01 -7.9378008842468262e-01</leafValues></_>
        <_>
          <internalNodes>
            0 -1 440 -1.5453460626304150e-02</internalNodes>
          <leafValues>
            4.2599073052406311e-01 -5.4561305046081543e-01</leafValues></_>
        <_>
          <internalNodes>
            0 -1 81 1.3369910418987274e-02</internalNodes>
          <leafValues>
            -3.2040601968765259e-01 5.2792990207672119e-01</leafValues></_>
        <_>
          <internalNodes>
            0 -1 305 -2.3733795387670398e-04</internalNodes>
          <leafValues>
            4.6564179658889771e-01 -3.3554661273956299e-01</leafValues></_>
        <_>
          <internalNodes>
            0 -1 600 1.9553667698346544e-06</internalNodes>
          <leafValues>
            -3.4884130954742432e-01 4.3244755268096924e-01</leafValues></_>
        <_>
          <internalNodes>
            0 -1 265 -2.9641795903444290e-02</internalNodes>
          <leafValues>
            4.4846540689468384e-01 -2.9392281174659729e-01</leafValues></_>
        <_>
          <internalNodes>
            0 -1 666 -3.7273233756422997e-03</internalNodes>
          <leafValues>
            5.1485401391983032e-01 -2.8697523474693298e-01</leafValues></_>
        <_>
          <internalNodes>
            0 -1 175 -6.5116509795188904e-02</internalNodes>
          <leafValues>
            -8.3191877603530884e-01 2.0197825133800507e-01</leafValues></_>
        <_>
          <internalNodes>
            0 -1 210 7.0878252387046814e-02</internalNodes>
          <leafValues>
            1.2262874841690063e-01 -7.6056754589080811e-01</leafValues></_></weakClassifiers></_>
    <!-- stage 1 -->
    <_>
      <maxWeakCount>14</maxWeakCount>
      <stageThreshold>-2.4187705516815186e+00</stageThreshold>
      <weakClassifiers>
        <_>
          <internalNodes>
            0 -1 58 -9.3528851866722107e-02</internalNodes>
          <leafValues>
            2.7798742055892944e-01 -8.1095099449157715e-01</leafValues></_>
        <_>
          <internalNodes>
            0 -1 476 2.1957143871986773e-06</internalNodes>
          <leafValues>
            -5.8273965120315552e-01 2.4000111222267151e-01</leafValues></_>
        <_>
          <internalNodes>
            0 -1 102 2.6659302413463593e-02</internalNodes>
          <leafValues>
            -2.2816652059555054e-01 6.1850869655609131e-01</leafValues></_>
        <_>
          <internalNodes>
            0 -1 547 2.6597391115501523e-04</internalNodes>
          <leafValues>
            1.5617977082729340e-01 -8.1899052858352661e-01</leafValues></_>
        <_>
          <internalNodes>
            0 -1 550 -3.0358979711309075e-04</internalNodes>
          <leafValues>
            -7.8556442260742188e-01 1.8934145569801331e-01</leafValues></_>
        <_>
          <internalNodes>
            0 -1 503 1.9292754586786032e-03</internalNodes>
          <leafValues>
            -4.6804976463317871e-01 2.9458233714103699e-01</leafValues></_>
        <_>
          <internalNodes>
            0 -1 536 1.9251372123108013e-06</internalNodes>
          <leafValues>
            -2.8313300013542175e-01 3.6639797687530518e-01</leafValues></_>
        <_>
          <internalNodes>
            0 -1 279 -3.1053210841491818e-04</internalNodes>
          <leafValues>
            3.7630197405815125e-01 -2.7207717299461365e-01</leafValues></_>
        <_>
          <internalNodes>
            0 -1 746 1.8847709952751757e-06</internalNodes>
          <leafValues>
            -2.7321037650108337e-01 3.5128560662269592e-01</leafValues></_>
        <_>
          <internalNodes>
            0 -1 160 -5.6657625827938318e-04</internalNodes>
          <leafValues>
            3.5020351409912109e-01 -2.5049534440040588e-01</leafValues></_>
        <_>
          <internalNodes>
            0 -1 430 2.3927135043777525e-04</internalNodes>
          <leafValues>
            1.2337460368871689e-01 -7.2738194465637207e-01</leafValues></_>
        <_>
          <internalNodes>
            0 -1 434 -2.2969191195443273e-04</internalNodes>
          <leafValues>
            -6.9170308113098145e-01 1.5358358621597290e-01</leafValues></_>
        <_>
          <internalNodes>
            0 -1 508 1.8663871514945640e-06</internalNodes>
          <leafValues>
            -3.0276387929916382e-01 2.9713633656501770e-01</leafValues></_>
        <_>
          <internalNodes>
            0 -1 691 -1.7042439430952072e-03</internalNodes>
          <leafValues>
            4.5534461736679077e-01 -2.0094145834445953e-01</leafValues></_></weakClassifiers></_>
    <!-- stage 2 -->
    <_>
      <maxWeakCount>18</maxWeakCount>
      <stageThreshold>-2.0539734363555908e+00</stageThreshold>
      <weakClassifiers>
        <_>
          <internalNodes>
            0 -1 383 -1.0992841422557831e-01</internalNodes>
          <leafValues>
            3.9911307394504547e-02 -7.9168301820755005e-01</leafValues></_>
        <_>
          <internalNodes>
            0 -1 197 -2.3820304777473211e-03</internalNodes>
          <leafValues>
            1.8264995515346527e-01 -5.8847844600677490e-01</leafValues></_>
        <_>
          <internalNodes>
            0 -1 379 1.9644705844257260e-06</internalNodes>
          <leafValues>
            -3.3279019594192505e-01 2.8570884466171265e-01</leafValues></_>
        <_>
          <internalNodes>
            0 -1 89 -5.8647766709327698e-03</internalNodes>
          <leafValues>
            5.1256293058395386e-01 -1.9246822595596313e-01</leafValues></_>
        <_>
          <internalNodes>
            0 -1 542 -2.7812400367110968e-04</internalNodes>
          <leafValues>
            -7.6499176025390625e-01 1.2153230607509613e-01</leafValues></_>
        <_>
          <internalNodes>
            0 -1 63 -9.8471948876976967e-04</internalNodes>
          <leafValues>
            4.3963661789894104e-01 -2.0142282545566559e-01</leafValues></_>
        <_>
          <internalNodes>
            0 -1 633 3.8360379636287689e-02</internalNodes>
          <leafValues>
            -1.6566739976406097e-01 5.0000983476638794e-01</leafValues></_>
        <_>
          <internalNodes>
            0 -1 692 -7.5349668040871620e-03</internalNodes>
          <leafValues>
            5.7204592227935791e-01 -1.9990977644920349e-01</leafValues></_>
        <_>
          <internalNodes>
            0 -1 544 2.3780274204909801e-04</internalNodes>
          <leafValues>
            1.5218058228492737e-01 -8.1891983747482300e-01</leafValues></_>
        <_>
          <internalNodes>
            0 -1 260 -2.5577656924724579e-04</internalNodes>
          <leafValues>
            3.1167989969253540e-01 -2.9377752542495728e-01</leafValues></_>
        <_>
          <internalNodes>
            0 -1 517 1.1336657189531252e-04</internalNodes>
          <leafValues>
            1.2964093685150146e-01 -7.3418921232223511e-01</leafValues></_>
        <_>
          <internalNodes>
            0 -1 92 5.8808336034417152e-03</internalNodes>
          <leafValues>
            -2.0071220397949219e-01 4.2113703489303589e-01</leafValues></_>
        <_>
          <internalNodes>
            0 -1 101 -2.6650426909327507e-02</internalNodes>
          <leafValues>
            4.9477881193161011e-01 -1.9615316390991211e-01</leafValues></_>
        <_>
          <internalNodes>
            0 -1 612 1.9243345832364867e-06</internalNodes>
          <leafValues>
            -2.6861795783042908e-01 3.0640029907226562e-01</leafValues></_>
        <_>
          <internalNodes>
            0 -1 367 -4.0121458005160093e-04</internalNodes>
          <leafValues>
            3.6460450291633606e-01 -1.9276142120361328e-01</leafValues></_>
        <_>
          <internalNodes>
            0 -1 472 3.8085738196969032e-04</internalNodes>
          <leafValues>
            1.0319841653108597e-01 -8.2131659984588623e-01</leafValues></_>
        <_>
          <internalNodes>
            0 -1 473 -3.3264444209635258e-04</internalNodes>
          <leafValues>
            -7.5910949707031250e-01 8.2873731851577759e-02</leafValues></_>
        <_>
          <internalNodes>
            0 -1 506 -7.4337649857625365e-04</internalNodes>
          <leafValues>
            3.7935340404510498e-01 -2.1582481265068054e-01</leafValues></_></weakClassifiers></_>
    <!-- stage 3 -->
    <_>
      <maxWeakCount>20</maxWeakCount>
      <stageThreshold>-2.0930869579315186e+00</stageThreshold>
      <weakClassifiers>
        <_>
          <internalNodes>
            0 -1 57 -1.5713909268379211e-01</internalNodes>
          <leafValues>
            4.3415338732302189e-03 -7.5400263071060181e-01</leafValues></_>
        <_>
          <internalNodes>
            0 -1 396 7.1711167693138123e-03</internalNodes>
          <leafValues>
            -5.7328486442565918e-01 1.4803537726402283e-01</leafValues></_>
        <_>
          <internalNodes>
            0 -1 82 -1.2510046362876892e-03</internalNodes>
          <leafValues>
            3.8668903708457947e-01 -2.6491048932075500e-01</leafValues></_>
        <_>
          <internalNodes>
            0 -1 106 6.0982652939856052e-04</internalNodes>
          <leafValues>
            -2.1087096631526947e-01 5.3062230348587036e-01</leafValues></_>
        <_>
          <internalNodes>
            0 -1 283 -7.9678476322442293e-04</internalNodes>
          <leafValues>
            2.2024208307266235e-01 -3.7035501003265381e-01</leafValues></_>
        <_>
          <internalNodes>
            0 -1 663 -2.3508940357714891e-03</internalNodes>
          <leafValues>
            3.7612000107765198e-01 -2.3087349534034729e-01</leafValues></_>
        <_>
          <internalNodes>
            0 -1 721 9.3352398835122585e-04</internalNodes>
          <leafValues>
            -1.9636712968349457e-01 3.9709326624870300e-01</leafValues></_>
        <_>
          <internalNodes>
            0 -1 226 -4.8879638314247131e-02</internalNodes>
          <leafValues>
            -6.9600820541381836e-01 1.4231663942337036e-01</leafValues></_>
        <_>
          <internalNodes>
            0 -1 477 1.9918788893846795e-06</internalNodes>
          <leafValues>
            -3.2148244976997375e-01 2.1902348101139069e-01</leafValues></_>
        <_>
          <internalNodes>
            0 -1 404 -3.7880038144066930e-04</internalNodes>
          <leafValues>
            3.7942349910736084e-01 -1.7244571447372437e-01</leafValues></_>
        <_>
          <internalNodes>
            0 -1 557 3.3220734621863812e-05</internalNodes>
          <leafValues>
            1.0513316839933395e-01 -7.4605333805084229e-01</leafValues></_>
        <_>
          <internalNodes>
            0 -1 219 -4.6712782932445407e-04</internalNodes>
          <leafValues>
            2.9058051109313965e-01 -2.2944371402263641e-01</leafValues></_>
        <_>
          <internalNodes>
            0 -1 449 4.4247768528293818e-05</internalNodes>
          <leafValues>
            1.1475016921758652e-01 -6.3209724426269531e-01</leafValues></_>
        <_>
          <internalNodes>
            0 -1 75 -2.6321033947169781e-03</internalNodes>
          <leafValues>
            3.2646387815475464e-01 -2.1553017199039459e-01</leafValues></_>
        <_>
          <internalNodes>
            0 -1 448 -4.7368659579660743e-05</internalNodes>
          <leafValues>
            -7.6448619365692139e-01 8.8546402752399445e-02</leafValues></_>
        <_>
          <internalNodes>
            0 -1 114 8.2089928910136223e-03</internalNodes>
          <leafValues>
            -2.4063545465469360e-01 2.6988136768341064e-01</leafValues></_>
        <_>
          <internalNodes>
            0 -1 222 -8.8167130947113037e-02</internalNodes>
          <leafValues>
            -9.3267238140106201e-01 7.6691195368766785e-02</leafValues></_>
        <_>
          <internalNodes>
            0 -1 96 -1.6684537753462791e-02</internalNodes>
          <leafValues>
            2.6687559485435486e-01 -2.6078137755393982e-01</leafValues></_>
        <_>
          <internalNodes>
            0 -1 159 -3.3664624788798392e-04</internalNodes>
          <leafValues>
            3.0309912562370300e-01 -2.2565756738185883e-01</leafValues></_>
        <_>
          <internalNodes>
            0 -1 333 -4.9663340178085491e-05</internalNodes>
          <leafValues>
            -5.7213371992111206e-01 1.2390716373920441e-01</leafValues></_></weakClassifiers></_>
    <!-- stage 4 -->
    <_>
      <maxWeakCount>28</maxWeakCount>
      <stageThreshold>-2.2424104213714600e+00</stageThreshold>
      <weakClassifiers>
        <_>
          <internalNodes>
            0 -1 386 -4.2397730052471161e-02</internalNodes>
          <leafValues>
            -4.0453937649726868e-01 -8.2360780239105225e-01</leafValues></_>
        <_>
          <internalNodes>
            0 -1 216 -2.7465489692986012e-03</internalNodes>
          <leafValues>
            7.8799247741699219e-02 -4.4863566756248474e-01</leafValues></_>
        <_>
          <internalNodes>
            0 -1 693 -3.5730660893023014e-03</internalNodes>
          <leafValues>
            3.9637532830238342e-01 -1.8005348742008209e-01</leafValues></_>
        <_>
          <internalNodes>
            0 -1 715 8.4130722098052502e-04</internalNodes>
          <leafValues>
            -1.7210313677787781e-01 4.5288723707199097e-01</leafValues></_>
        <_>
          <internalNodes>
            0 -1 111 -3.1294431537389755e-02</internalNodes>
          <leafValues>
            3.6235836148262024e-01 -1.8690282106399536e-01</leafValues></_>
        <_>
          <internalNodes>
            0 -1 480 4.3360931158531457e-05</internalNodes>
          <leafValues>
            9.3461006879806519e-02 -7.3930537700653076e-01</leafValues></_>
        <_>
          <internalNodes>
            0 -1 83 2.9106462374329567e-02</internalNodes>
          <leafValues>
            -1.2883536517620087e-01 5.2772849798202515e-01</leafValues></_>
        <_>
          <internalNodes>
            0 -1 401 1.9973238067905186e-06</internalNodes>
          <leafValues>
            -2.6726761460304260e-01 2.6577505469322205e-01</leafValues></_>
        <_>
          <internalNodes>
            0 -1 127 -1.7150694038718939e-03</internalNodes>
          <leafValues>
            4.8652642965316772e-01 -1.0041286796331406e-01</leafValues></_>
        <_>
          <internalNodes>
            0 -1 467 -6.6437444183975458e-04</internalNodes>
          <leafValues>
            -9.1122311353683472e-01 6.2271095812320709e-02</leafValues></_>
        <_>
          <internalNodes>
            0 -1 128 1.0455135488882661e-03</internalNodes>
          <leafValues>
            -1.9191072881221771e-01 3.2342520356178284e-01</leafValues></_>
        <_>
          <internalNodes>
            0 -1 601 3.8628304537269287e-06</internalNodes>
          <leafValues>
            -2.5762471556663513e-01 2.3884786665439606e-01</leafValues></_>
        <_>
          <internalNodes>
            0 -1 518 -3.9208531234180555e-05</internalNodes>
          <leafValues>
            -6.9189000129699707e-01 9.2255614697933197e-02</leafValues></_>
        <_>
          <internalNodes>
            0 -1 198 2.6446813717484474e-04</internalNodes>
          <leafValues>
            6.5009944140911102e-02 -7.3165988922119141e-01</leafValues></_>
        <_>
          <internalNodes>
            0 -1 261 -1.7855210171546787e-04</internalNodes>
          <leafValues>
            2.5132751464843750e-01 -2.3736356198787689e-01</leafValues></_>
        <_>
          <internalNodes>
            0 -1 223 1.4339026808738708e-01</internalNodes>
          <leafValues>
            6.5248295664787292e-02 -8.5386174917221069e-01</leafValues></_>
        <_>
          <internalNodes>
            0 -1 270 4.3580024794209749e-05</internalNodes>
          <leafValues>
            7.1146480739116669e-02 -6.3224434852600098e-01</leafValues></_>
        <_>
          <internalNodes>
            0 -1 781 -1.8663871514945640e-06</internalNodes>
          <leafValues>
            2.6993066072463989e-01 -2.1854826807975769e-01</leafValues></_>
        <_>
          <internalNodes>
            0 -1 371 -1.4512382913380861e-03</internalNodes>
          <leafValues>
            2.5410807132720947e-01 -2.2015456855297089e-01</leafValues></_>
        <_>
          <internalNodes>
            0 -1 228 1.3140873052179813e-03</internalNodes>
          <leafValues>
            6.1825465410947800e-02 -8.7806552648544312e-01</leafValues></_>
        <_>
          <internalNodes>
            0 -1 125 1.3702207803726196e-01</internalNodes>
          <leafValues>
            5.8450277894735336e-02 -7.4719339609146118e-01</leafValues></_>
        <_>
          <internalNodes>
            0 -1 329 -6.7473080707713962e-04</internalNodes>
          <leafValues>
            3.7550076842308044e-01 -1.5648809075355530e-01</leafValues></_>
        <_>
          <internalNodes>
            0 -1 595 1.9243345832364867e-06</internalNodes>
          <leafValues>
            -2.4262027442455292e-01 2.4313211441040039e-01</leafValues></_>
        <_>
          <internalNodes>
            0 -1 179 -8.2740699872374535e-04</internalNodes>
          <leafValues>
            -7.2333365678787231e-01 7.9999506473541260e-02</leafValues></_>
        <_>
          <internalNodes>
            0 -1 189 -4.2922973632812500e-02</internalNodes>
          <leafValues>
            -5.9055870771408081e-01 8.5425458848476410e-02</leafValues></_>
        <_>
          <internalNodes>
            0 -1 327 -3.3988343784585595e-04</internalNodes>
          <leafValues>
            2.7929291129112244e-01 -2.0163889229297638e-01</leafValues></_>
        <_>
          <internalNodes>
            0 -1 143 -9.1957617551088333e-03</internalNodes>
          <leafValues>
            2.5399920344352722e-01 -2.3487165570259094e-01</leafValues></_>
        <_>
          <internalNodes>
            0 -1 518 5.5643504310864955e-05</internalNodes>
          <leafValues>
            6.3171625137329102e-02 -9.0987896919250488e-01</leafValues></_></weakClassifiers></_>
    <!-- stage 5 -->
    <_>
      <maxWeakCount>29</maxWeakCount>
      <stageThreshold>-2.0121738910675049e+00</stageThreshold>
      <weakClassifiers>
        <_>
          <internalNodes>
            0 -1 108 1.4970293268561363e-02</internalNodes>
          <leafValues>
            -7.9833680391311646e-01 -4.3122676014900208e-01</leafValues></_>
        <_>
          <internalNodes>
            0 -1 370 -7.1842269971966743e-03</internalNodes>
          <leafValues>
            8.2952700555324554e-02 -4.5441195368766785e-01</leafValues></_>
        <_>
          <internalNodes>
            0 -1 116 -1.8574839923530817e-03</internalNodes>
          <leafValues>
            3.6940276622772217e-01 -1.8409159779548645e-01</leafValues></_>
        <_>
          <internalNodes>
            0 -1 79 -2.1715885959565639e-03</internalNodes>
          <leafValues>
            3.8151881098747253e-01 -1.4891862869262695e-01</leafValues></_>
        <_>
          <internalNodes>
            0 -1 177 -1.6743086278438568e-02</internalNodes>
          <leafValues>
            -4.7497600317001343e-01 1.1871285736560822e-01</leafValues></_>
        <_>
          <internalNodes>
            0 -1 162 -1.2282883748412132e-02</internalNodes>
          <leafValues>
            2.7589258551597595e-01 -1.8716819584369659e-01</leafValues></_>
        <_>
          <internalNodes>
            0 -1 43 5.1193587481975555e-02</internalNodes>
          <leafValues>
            -1.4394456148147583e-01 5.8396977186203003e-01</leafValues></_>
        <_>
          <internalNodes>
            0 -1 727 8.3066308870911598e-03</internalNodes>
          <leafValues>
            -1.2844537198543549e-01 3.8497716188430786e-01</leafValues></_>
        <_>
          <internalNodes>
            0 -1 183 4.7655607340857387e-04</internalNodes>
          <leafValues>
            -1.5876622498035431e-01 3.1601002812385559e-01</leafValues></_>
        <_>
          <internalNodes>
            0 -1 400 5.3569601732306182e-05</internalNodes>
          <leafValues>
            6.9957487285137177e-02 -7.6249617338180542e-01</leafValues></_>
        <_>
          <internalNodes>
            0 -1 712 5.2133703138679266e-04</internalNodes>
          <leafValues>
            -1.6807647049427032e-01 3.3540520071983337e-01</leafValues></_>
        <_>
          <internalNodes>
            0 -1 469 6.2245802837423980e-05</internalNodes>
          <leafValues>
            6.2746390700340271e-02 -8.0979293584823608e-01</leafValues></_>
        <_>
          <internalNodes>
            0 -1 187 -5.8562040794640779e-04</internalNodes>
          <leafValues>
            2.4727626144886017e-01 -2.2183781862258911e-01</leafValues></_>
        <_>
          <internalNodes>
            0 -1 252 6.6380220232531428e-05</internalNodes>
          <leafValues>
            7.2874873876571655e-02 -7.1073609590530396e-01</leafValues></_>
        <_>
          <internalNodes>
            0 -1 395 -1.7711853142827749e-03</internalNodes>
          <leafValues>
            1.9973845779895782e-01 -2.5409325957298279e-01</leafValues></_>
        <_>
          <internalNodes>
            0 -1 705 9.6747622592374682e-04</internalNodes>
          <leafValues>
            -1.4212881028652191e-01 3.5621285438537598e-01</leafValues></_>
        <_>
          <internalNodes>
            0 -1 555 2.8534197554108687e-05</internalNodes>
          <leafValues>
            8.1362821161746979e-02 -6.7309522628784180e-01</leafValues></_>
        <_>
          <internalNodes>
            0 -1 646 9.5836454420350492e-05</internalNodes>
          <leafValues>
            4.1853561997413635e-02 -8.7957537174224854e-01</leafValues></_>
        <_>
          <internalNodes>
            0 -1 126 -2.2019622847437859e-03</internalNodes>
          <leafValues>
            3.3359271287918091e-01 -1.6100245714187622e-01</leafValues></_>
        <_>
          <internalNodes>
            0 -1 259 1.7488049343228340e-04</internalNodes>
          <leafValues>
            -1.9587485492229462e-01 2.4366249144077301e-01</leafValues></_>
        <_>
          <internalNodes>
            0 -1 621 1.9721496755664703e-06</internalNodes>
          <leafValues>
            -2.5752112269401550e-01 1.8781442940235138e-01</leafValues></_>
        <_>
          <internalNodes>
            0 -1 271 2.8749469493050128e-05</internalNodes>
          <leafValues>
            1.0075061023235321e-01 -5.2160620689392090e-01</leafValues></_>
        <_>
          <internalNodes>
            0 -1 112 5.4113693535327911e-02</internalNodes>
          <leafValues>
            -1.0007759928703308e-01 5.2095323801040649e-01</leafValues></_>
        <_>
          <internalNodes>
            0 -1 324 3.8518137444043532e-06</internalNodes>
          <leafValues>
            -1.9540610909461975e-01 2.4401682615280151e-01</leafValues></_>
        <_>
          <internalNodes>
            0 -1 703 -9.4706175150349736e-04</internalNodes>
          <leafValues>
            2.9157567024230957e-01 -1.6801749169826508e-01</leafValues></_>
        <_>
          <internalNodes>
            0 -1 670 3.0941570003051311e-05</internalNodes>
          <leafValues>
            1.0293873399496078e-01 -4.7839474678039551e-01</leafValues></_>
        <_>
          <internalNodes>
            0 -1 617 -3.4781813155859709e-05</internalNodes>
          <leafValues>
            -4.7590655088424683e-01 8.9758567512035370e-02</leafValues></_>
        <_>
          <internalNodes>
            0 -1 495 -1.6448961105197668e-03</internalNodes>
          <leafValues>
            2.6929602026939392e-01 -1.7585882544517517e-01</leafValues></_>
        <_>
          <internalNodes>
            0 -1 688 3.7998106563463807e-06</internalNodes>
          <leafValues>
            -1.9799892604351044e-01 2.5422275066375732e-01</leafValues></_></weakClassifiers></_>
    <!-- stage 6 -->
    <_>
      <maxWeakCount>34</maxWeakCount>
      <stageThreshold>-1.9803543090820312e+00</stageThreshold>
      <weakClassifiers>
        <_>
          <internalNodes>
            0 -1 196 -3.3493484370410442e-03</internalNodes>
          <leafValues>
            -5.0610393285751343e-01 -8.1359720230102539e-01</leafValues></_>
        <_>
          <internalNodes>
            0 -1 105 -2.6234199758619070e-03</internalNodes>
          <leafValues>
            2.1368369460105896e-01 -3.0724036693572998e-01</leafValues></_>
        <_>
          <internalNodes>
            0 -1 505 2.3899455554783344e-03</internalNodes>
          <leafValues>
            -3.3317247033119202e-01 1.7780104279518127e-01</leafValues></_>
        <_>
          <internalNodes>
            0 -1 130 3.6851153708994389e-04</internalNodes>
          <leafValues>
            -1.3897335529327393e-01 4.3943098187446594e-01</leafValues></_>
        <_>
          <internalNodes>
            0 -1 164 -3.2360590994358063e-02</internalNodes>
          <leafValues>
            -5.9033572673797607e-01 1.4411884546279907e-01</leafValues></_>
        <_>
          <internalNodes>
            0 -1 684 -9.0879428898915648e-04</internalNodes>
          <leafValues>
            3.1426033377647400e-01 -1.9708368182182312e-01</leafValues></_>
        <_>
          <internalNodes>
            0 -1 281 -5.2775368094444275e-03</internalNodes>
          <leafValues>
            1.8500082194805145e-01 -3.0935841798782349e-01</leafValues></_>
        <_>
          <internalNodes>
            0 -1 685 1.7397386254742742e-03</internalNodes>
          <leafValues>
            -1.6630221903324127e-01 3.3318358659744263e-01</leafValues></_>
        <_>
          <internalNodes>
            0 -1 662 -7.5559836113825440e-04</internalNodes>
          <leafValues>
            2.8327569365501404e-01 -1.6336308419704437e-01</leafValues></_>
        <_>
          <internalNodes>
            0 -1 137 -6.2072187662124634e-02</internalNodes>
          <leafValues>
            -5.2055269479751587e-01 1.0369499772787094e-01</leafValues></_>
        <_>
          <internalNodes>
            0 -1 377 -1.9317828900966560e-06</internalNodes>
          <leafValues>
            2.0384585857391357e-01 -2.2487488389015198e-01</leafValues></_>
        <_>
          <internalNodes>
            0 -1 10 4.9889009445905685e-02</internalNodes>
          <leafValues>
            -8.7303332984447479e-02 5.2265286445617676e-01</leafValues></_>
        <_>
          <internalNodes>
            0 -1 494 1.8546566025179345e-06</internalNodes>
          <leafValues>
            -2.1990440785884857e-01 2.1589249372482300e-01</leafValues></_>
        <_>
          <internalNodes>
            0 -1 68 -5.7230255333706737e-04</internalNodes>
          <leafValues>
            3.0911120772361755e-01 -1.6721072793006897e-01</leafValues></_>
        <_>
          <internalNodes>
            0 -1 78 -2.3420837521553040e-01</internalNodes>
          <leafValues>
            4.5414626598358154e-01 -9.9351152777671814e-02</leafValues></_>
        <_>
          <internalNodes>
            0 -1 558 -6.5277519752271473e-05</internalNodes>
          <leafValues>
            -5.1454031467437744e-01 9.7054705023765564e-02</leafValues></_>
        <_>
          <internalNodes>
            0 -1 482 -3.0996129498817027e-04</internalNodes>
          <leafValues>
            3.0356374382972717e-01 -1.6031414270401001e-01</leafValues></_>
        <_>
          <internalNodes>
            0 -1 419 -1.8168187807532377e-06</internalNodes>
          <leafValues>
            2.2594448924064636e-01 -2.3611974716186523e-01</leafValues></_>
        <_>
          <internalNodes>
            0 -1 373 3.4324807347729802e-04</internalNodes>
          <leafValues>
            -1.3560356199741364e-01 3.6659204959869385e-01</leafValues></_>
        <_>
          <internalNodes>
            0 -1 561 5.0277369155082852e-05</internalNodes>
          <leafValues>
            6.7919030785560608e-02 -8.1225585937500000e-01</leafValues></_>
        <_>
          <internalNodes>
            0 -1 138 -1.6599989612586796e-04</internalNodes>
          <leafValues>
            3.4779691696166992e-01 -1.5745645761489868e-01</leafValues></_>
        <_>
          <internalNodes>
            0 -1 675 2.5459543394390494e-05</internalNodes>
          <leafValues>
            8.3982340991497040e-02 -5.9748703241348267e-01</leafValues></_>
        <_>
          <internalNodes>
            0 -1 186 5.5728503502905369e-04</internalNodes>
          <leafValues>
            -1.5504223108291626e-01 3.0738082528114319e-01</leafValues></_>
        <_>
          <internalNodes>
            0 -1 272 6.2275983509607613e-05</internalNodes>
          <leafValues>
            6.8385086953639984e-02 -7.2326248884201050e-01</leafValues></_>
        <_>
          <internalNodes>
            0 -1 490 9.0066832490265369e-04</internalNodes>
          <leafValues>
            -1.4248017966747284e-01 3.1052213907241821e-01</leafValues></_>
        <_>
          <internalNodes>
            0 -1 308 5.3330868482589722e-02</internalNodes>
          <leafValues>
            6.8476192653179169e-02 -7.0736759901046753e-01</leafValues></_>
        <_>
          <internalNodes>
            0 -1 339 6.4722400566097349e-05</internalNodes>
          <leafValues>
            7.1616888046264648e-02 -5.6514209508895874e-01</leafValues></_>
        <_>
          <internalNodes>
            0 -1 474 -4.1830184636637568e-04</internalNodes>
          <leafValues>
            3.1117728352546692e-01 -1.5231037139892578e-01</leafValues></_>
        <_>
          <internalNodes>
            0 -1 321 4.9278285587206483e-05</internalNodes>
          <leafValues>
            7.2780646383762360e-02 -6.2982434034347534e-01</leafValues></_>
        <_>
          <internalNodes>
            0 -1 315 -3.6064994055777788e-03</internalNodes>
          <leafValues>
            3.1493327021598816e-01 -1.5408498048782349e-01</leafValues></_>
        <_>
          <internalNodes>
            0 -1 325 1.1916051153093576e-03</internalNodes>
          <leafValues>
            -1.4861652255058289e-01 2.8172552585601807e-01</leafValues></_>
        <_>
          <internalNodes>
            0 -1 733 5.0045538228005171e-04</internalNodes>
          <leafValues>
            -1.1707225441932678e-01 3.5254618525505066e-01</leafValues></_>
        <_>
          <internalNodes>
            0 -1 763 1.7871278714665095e-06</internalNodes>
          <leafValues>
            -1.6766788065433502e-01 2.5274440646171570e-01</leafValues></_>
        <_>
          <internalNodes>
            0 -1 731 -2.2975294268690050e-04</internalNodes>
          <leafValues>
            -2.9408442974090576e-01 1.4496105909347534e-01</leafValues></_></weakClassifiers></_>
    <!-- stage 7 -->
    <_>
      <maxWeakCount>42</maxWeakCount>
      <stageThreshold>-2.1937494277954102e+00</stageThreshold>
      <weakClassifiers>
        <_>
          <internalNodes>
            0 -1 423 -7.7488971874117851e-03</internalNodes>
          <leafValues>
            -4.8841354250907898e-01 -7.7316296100616455e-01</leafValues></_>
        <_>
          <internalNodes>
            0 -1 184 -4.6155560994520783e-04</internalNodes>
          <leafValues>
            9.2160187661647797e-02 -3.4493803977966309e-01</leafValues></_>
        <_>
          <internalNodes>
            0 -1 299 -2.2295221242529806e-06</internalNodes>
          <leafValues>
            1.5313847362995148e-01 -3.0079573392868042e-01</leafValues></_>
        <_>
          <internalNodes>
            0 -1 653 1.1429001460783184e-04</internalNodes>
          <leafValues>
            4.8588789999485016e-02 -8.6438232660293579e-01</leafValues></_>
        <_>
          <internalNodes>
            0 -1 699 -2.0696460269391537e-03</internalNodes>
          <leafValues>
            3.1384500861167908e-01 -1.4520795643329620e-01</leafValues></_>
        <_>
          <internalNodes>
            0 -1 724 2.4352010223083198e-04</internalNodes>
          <leafValues>
            -1.6879171133041382e-01 3.2240486145019531e-01</leafValues></_>
        <_>
          <internalNodes>
            0 -1 332 -2.5096017867326736e-02</internalNodes>
          <leafValues>
            -5.0492167472839355e-01 1.0081072896718979e-01</leafValues></_>
        <_>
          <internalNodes>
            0 -1 649 2.9361563065322116e-05</internalNodes>
          <leafValues>
            9.7514577209949493e-02 -4.3660116195678711e-01</leafValues></_>
        <_>
          <internalNodes>
            0 -1 631 1.8972738189404481e-06</internalNodes>
          <leafValues>
            -2.3586972057819366e-01 1.8558432161808014e-01</leafValues></_>
        <_>
          <internalNodes>
            0 -1 104 1.1463684495538473e-03</internalNodes>
          <leafValues>
            -1.1858453601598740e-01 3.5193252563476562e-01</leafValues></_>
        <_>
          <internalNodes>
            0 -1 88 -1.3460419140756130e-03</internalNodes>
          <leafValues>
            2.9423937201499939e-01 -1.7297527194023132e-01</leafValues></_>
        <_>
          <internalNodes>
            0 -1 99 9.3686627224087715e-05</internalNodes>
          <leafValues>
            -1.5591600537300110e-01 2.8040558099746704e-01</leafValues></_>
        <_>
          <internalNodes>
            0 -1 606 -8.3089900726918131e-05</internalNodes>
          <leafValues>
            -8.1753742694854736e-01 5.5156432092189789e-02</leafValues></_>
        <_>
          <internalNodes>
            0 -1 53 -7.5402483344078064e-02</internalNodes>
          <leafValues>
            2.8362542390823364e-01 -1.5225842595100403e-01</leafValues></_>
        <_>
          <internalNodes>
            0 -1 366 -2.7891897480003536e-04</internalNodes>
          <leafValues>
            2.5212725996971130e-01 -1.7426572740077972e-01</leafValues></_>
        <_>
          <internalNodes>
            0 -1 665 -6.6999942646361887e-05</internalNodes>
          <leafValues>
            -6.3131797313690186e-01 7.2620034217834473e-02</leafValues></_>
        <_>
          <internalNodes>
            0 -1 447 2.4649380065966398e-05</internalNodes>
          <leafValues>
            6.8359166383743286e-02 -5.5142700672149658e-01</leafValues></_>
        <_>
          <internalNodes>
            0 -1 399 4.8915993829723448e-05</internalNodes>
          <leafValues>
            -2.1389216184616089e-01 2.0656763017177582e-01</leafValues></_>
        <_>
          <internalNodes>
            0 -1 276 -1.0427294764667749e-03</internalNodes>
          <leafValues>
            -6.1901611089706421e-01 6.4454682171344757e-02</leafValues></_>
        <_>
          <internalNodes>
            0 -1 717 2.2928210091777146e-04</internalNodes>
          <leafValues>
            -1.5032894909381866e-01 2.9284778237342834e-01</leafValues></_>
        <_>
          <internalNodes>
            0 -1 263 -2.6621966389939189e-04</internalNodes>
          <leafValues>
            2.3023377358913422e-01 -1.8077485263347626e-01</leafValues></_>
        <_>
          <internalNodes>
            0 -1 535 3.8070840673753992e-05</internalNodes>
          <leafValues>
            -2.5481393933296204e-01 1.6450104117393494e-01</leafValues></_>
        <_>
          <internalNodes>
            0 -1 543 -4.0883132896851748e-05</internalNodes>
          <leafValues>
            -6.3789421319961548e-01 6.8936608731746674e-02</leafValues></_>
        <_>
          <internalNodes>
            0 -1 255 2.6353302018833347e-05</internalNodes>
          <leafValues>
            1.0974545776844025e-01 -3.7471732497215271e-01</leafValues></_>
        <_>
          <internalNodes>
            0 -1 4 1.7835996004578192e-06</internalNodes>
          <leafValues>
            -1.6033582389354706e-01 2.4537028372287750e-01</leafValues></_>
        <_>
          <internalNodes>
            0 -1 376 -9.5303123816847801e-04</internalNodes>
          <leafValues>
            3.3199381828308105e-01 -1.1416766792535782e-01</leafValues></_>
        <_>
          <internalNodes>
            0 -1 165 5.9757947921752930e-02</internalNodes>
          <leafValues>
            6.9983333349227905e-02 -6.3691133260726929e-01</leafValues></_>
        <_>
          <internalNodes>
            0 -1 408 -3.3908241894096136e-03</internalNodes>
          <leafValues>
            2.3642285168170929e-01 -1.8202821910381317e-01</leafValues></_>
        <_>
          <internalNodes>
            0 -1 616 4.8292982683051378e-05</internalNodes>
          <leafValues>
            7.1500383317470551e-02 -5.7966190576553345e-01</leafValues></_>
        <_>
          <internalNodes>
            0 -1 764 3.5987131923320703e-06</internalNodes>
          <leafValues>
            -1.7438606917858124e-01 2.2937548160552979e-01</leafValues></_>
        <_>
          <internalNodes>
            0 -1 234 4.5324879465624690e-05</internalNodes>
          <leafValues>
            1.0111843794584274e-01 -3.9803397655487061e-01</leafValues></_>
        <_>
          <internalNodes>
            0 -1 710 -1.9605620309448568e-06</internalNodes>
          <leafValues>
            2.3005072772502899e-01 -1.7413292825222015e-01</leafValues></_>
        <_>
          <internalNodes>
            0 -1 309 -3.6014222132507712e-05</internalNodes>
          <leafValues>
            -4.0037864446640015e-01 9.9409647285938263e-02</leafValues></_>
        <_>
          <internalNodes>
            0 -1 407 1.9853172823786736e-02</internalNodes>
          <leafValues>
            -7.2456896305084229e-02 5.6278073787689209e-01</leafValues></_>
        <_>
          <internalNodes>
            0 -1 350 -2.0756212994456291e-02</internalNodes>
          <leafValues>
            2.0999938249588013e-01 -2.3495049774646759e-01</leafValues></_>
        <_>
          <internalNodes>
            0 -1 498 -1.5234391391277313e-01</internalNodes>
          <leafValues>
            -7.6905006170272827e-01 6.0810092836618423e-02</leafValues></_>
        <_>
          <internalNodes>
            0 -1 156 1.4116548118181527e-04</internalNodes>
          <leafValues>
            -1.5267315506935120e-01 2.6322054862976074e-01</leafValues></_>
        <_>
          <internalNodes>
            0 -1 644 -2.0874656911473721e-04</internalNodes>
          <leafValues>
            -7.8045535087585449e-01 5.4272599518299103e-02</leafValues></_>
        <_>
          <internalNodes>
            0 -1 782 -2.2522517610923387e-05</internalNodes>
          <leafValues>
            -2.5294053554534912e-01 1.5452423691749573e-01</leafValues></_>
        <_>
          <internalNodes>
            0 -1 736 5.5218604393303394e-04</internalNodes>
          <leafValues>
            7.7808633446693420e-02 -4.7398126125335693e-01</leafValues></_>
        <_>
          <internalNodes>
            0 -1 289 1.9719633273780346e-03</internalNodes>
          <leafValues>
            -2.7908426523208618e-01 1.3862594962120056e-01</leafValues></_>
        <_>
          <internalNodes>
            0 -1 129 -2.7283572126179934e-04</internalNodes>
          <leafValues>
            4.0148559212684631e-01 -1.0293653607368469e-01</leafValues></_></weakClassifiers></_>
    <!-- stage 8 -->
    <_>
      <maxWeakCount>38</maxWeakCount>
      <stageThreshold>-1.9113038778305054e+00</stageThreshold>
      <weakClassifiers>
        <_>
          <internalNodes>
            0 -1 363 3.7678179796785116e-04</internalNodes>
          <leafValues>
            -7.5476193428039551e-01 -4.6111109852790833e-01</leafValues></_>
        <_>
          <internalNodes>
            0 -1 479 1.8788571196637349e-06</internalNodes>
          <leafValues>
            -4.0301167964935303e-01 3.8291048258543015e-02</leafValues></_>
        <_>
          <internalNodes>
            0 -1 334 -9.6691176295280457e-03</internalNodes>
          <leafValues>
            1.4262230694293976e-01 -2.8778713941574097e-01</leafValues></_>
        <_>
          <internalNodes>
            0 -1 161 5.3466029930859804e-04</internalNodes>
          <leafValues>
            -1.1665578931570053e-01 3.2870271801948547e-01</leafValues></_>
        <_>
          <internalNodes>
            0 -1 131 3.9781408850103617e-04</internalNodes>
          <leafValues>
            -8.2170046865940094e-02 3.5345068573951721e-01</leafValues></_>
        <_>
          <internalNodes>
            0 -1 451 -3.2813873986015096e-05</internalNodes>
          <leafValues>
            -5.5804669857025146e-01 7.3181815445423126e-02</leafValues></_>
        <_>
          <internalNodes>
            0 -1 452 4.8822519602254033e-05</internalNodes>
          <leafValues>
            9.1628730297088623e-02 -4.5369759202003479e-01</leafValues></_>
        <_>
          <internalNodes>
            0 -1 240 -1.0734110837802291e-03</internalNodes>
          <leafValues>
            2.7482351660728455e-01 -1.5324775874614716e-01</leafValues></_>
        <_>
          <internalNodes>
            0 -1 280 -3.8553486228920519e-04</internalNodes>
          <leafValues>
            2.6224744319915771e-01 -1.4370520412921906e-01</leafValues></_>
        <_>
          <internalNodes>
            0 -1 17 -2.0222833752632141e-01</internalNodes>
          <leafValues>
            3.4431457519531250e-01 -1.2020586431026459e-01</leafValues></_>
        <_>
          <internalNodes>
            0 -1 27 6.0669653117656708e-02</internalNodes>
          <leafValues>
            -1.3631780445575714e-01 3.6864548921585083e-01</leafValues></_>
        <_>
          <internalNodes>
            0 -1 671 4.7613473725505173e-05</internalNodes>
          <leafValues>
            4.9688030034303665e-02 -7.1821063756942749e-01</leafValues></_>
        <_>
          <internalNodes>
            0 -1 268 -4.7463089227676392e-02</internalNodes>
          <leafValues>
            2.2298377752304077e-01 -1.7361861467361450e-01</leafValues></_>
        <_>
          <internalNodes>
            0 -1 697 1.3958436902612448e-03</internalNodes>
          <leafValues>
            -1.2896375358104706e-01 3.4354510903358459e-01</leafValues></_>
        <_>
          <internalNodes>
            0 -1 67 2.7578510344028473e-04</internalNodes>
          <leafValues>
            -1.4832219481468201e-01 2.6218509674072266e-01</leafValues></_>
        <_>
          <internalNodes>
            0 -1 15 6.9350502453744411e-03</internalNodes>
          <leafValues>
            -1.5254461765289307e-01 2.5577321648597717e-01</leafValues></_>
        <_>
          <internalNodes>
            0 -1 335 -6.8385410122573376e-04</internalNodes>
          <leafValues>
            -7.4475526809692383e-01 5.2721336483955383e-02</leafValues></_>
        <_>
          <internalNodes>
            0 -1 651 6.9160530983936042e-05</internalNodes>
          <leafValues>
            -1.6503721475601196e-01 2.3440286517143250e-01</leafValues></_>
        <_>
          <internalNodes>
            0 -1 776 -1.8663871514945640e-06</internalNodes>
          <leafValues>
            2.1791759133338928e-01 -1.7174836993217468e-01</leafValues></_>
        <_>
          <internalNodes>
            0 -1 725 8.5846590809524059e-04</internalNodes>
          <leafValues>
            -1.2404906749725342e-01 3.0605044960975647e-01</leafValues></_>
        <_>
          <internalNodes>
            0 -1 723 -9.5278793014585972e-04</internalNodes>
          <leafValues>
            2.9717415571212769e-01 -1.3664567470550537e-01</leafValues></_>
        <_>
          <internalNodes>
            0 -1 431 7.0711525040678680e-05</internalNodes>
          <leafValues>
            4.5520834624767303e-02 -8.3137595653533936e-01</leafValues></_>
        <_>
          <internalNodes>
            0 -1 344 -4.9519410822540522e-04</internalNodes>
          <leafValues>
            2.1768842637538910e-01 -1.8395066261291504e-01</leafValues></_>
        <_>
          <internalNodes>
            0 -1 453 -4.8344467359129339e-05</internalNodes>
          <leafValues>
            -4.9714347720146179e-01 7.8540951013565063e-02</leafValues></_>
        <_>
          <internalNodes>
            0 -1 450 -1.3745526084676385e-03</internalNodes>
          <leafValues>
            3.2077977061271667e-01 -1.2473317980766296e-01</leafValues></_>
        <_>
          <internalNodes>
            0 -1 192 -6.5092906355857849e-02</internalNodes>
          <leafValues>
            -6.4573240280151367e-01 5.6714881211519241e-02</leafValues></_>
        <_>
          <internalNodes>
            0 -1 623 -9.4309536507353187e-05</internalNodes>
          <leafValues>
            -6.2494599819183350e-01 5.2324265241622925e-02</leafValues></_>
        <_>
          <internalNodes>
            0 -1 459 -1.0259288828819990e-03</internalNodes>
          <leafValues>
            2.2426711022853851e-01 -1.8113814294338226e-01</leafValues></_>
        <_>
          <internalNodes>
            0 -1 47 -3.5400973865762353e-04</internalNodes>
          <leafValues>
            2.3035450279712677e-01 -1.5826047956943512e-01</leafValues></_>
        <_>
          <internalNodes>
            0 -1 224 -4.1993826627731323e-02</internalNodes>
          <leafValues>
            -3.8263604044914246e-01 9.9561139941215515e-02</leafValues></_>
        <_>
          <internalNodes>
            0 -1 246 -2.0094314095331356e-05</internalNodes>
          <leafValues>
            -3.8020858168601990e-01 9.0658992528915405e-02</leafValues></_>
        <_>
          <internalNodes>
            0 -1 188 5.2565685473382473e-04</internalNodes>
          <leafValues>
            -1.4071902632713318e-01 2.6264536380767822e-01</leafValues></_>
        <_>
          <internalNodes>
            0 -1 466 1.1703359632520005e-04</internalNodes>
          <leafValues>
            4.7908402979373932e-02 -7.5263279676437378e-01</leafValues></_>
        <_>
          <internalNodes>
            0 -1 387 5.1334651652723551e-04</internalNodes>
          <leafValues>
            -1.4873549342155457e-01 2.6191705465316772e-01</leafValues></_>
        <_>
          <internalNodes>
            0 -1 180 -1.6776112606748939e-03</internalNodes>
          <leafValues>
            2.0803870260715485e-01 -1.7354166507720947e-01</leafValues></_>
        <_>
          <internalNodes>
            0 -1 567 8.7110139429569244e-03</internalNodes>
          <leafValues>
            -7.6149493455886841e-02 5.0784820318222046e-01</leafValues></_>
        <_>
          <internalNodes>
            0 -1 615 -8.1079835072159767e-03</internalNodes>
          <leafValues>
            2.3474141955375671e-01 -1.7530544102191925e-01</leafValues></_>
        <_>
          <internalNodes>
            0 -1 214 4.3626067053992301e-05</internalNodes>
          <leafValues>
            7.2348184883594513e-02 -4.9980106949806213e-01</leafValues></_></weakClassifiers></_>
    <!-- stage 9 -->
    <_>
      <maxWeakCount>39</maxWeakCount>
      <stageThreshold>-1.8019319772720337e+00</stageThreshold>
      <weakClassifiers>
        <_>
          <internalNodes>
            0 -1 293 -5.9597071958705783e-04</internalNodes>
          <leafValues>
            -4.8819741606712341e-01 -7.4709862470626831e-01</leafValues></_>
        <_>
          <internalNodes>
            0 -1 320 -3.0023147701285779e-05</internalNodes>
          <leafValues>
            1.4116135425865650e-02 -4.1706752777099609e-01</leafValues></_>
        <_>
          <internalNodes>
            0 -1 417 3.5558841773308814e-06</internalNodes>
          <leafValues>
            -2.3069487512111664e-01 1.6085839271545410e-01</leafValues></_>
        <_>
          <internalNodes>
            0 -1 84 4.8511492786929011e-04</internalNodes>
          <leafValues>
            -1.1455681920051575e-01 3.1967738270759583e-01</leafValues></_>
        <_>
          <internalNodes>
            0 -1 425 1.6287404298782349e-01</internalNodes>
          <leafValues>
            8.8249467313289642e-02 -7.3928707838058472e-01</leafValues></_>
        <_>
          <internalNodes>
            0 -1 608 3.7830645851499867e-06</internalNodes>
          <leafValues>
            -2.3137162625789642e-01 1.4866757392883301e-01</leafValues></_>
        <_>
          <internalNodes>
            0 -1 95 1.3247139577288181e-04</internalNodes>
          <leafValues>
            -9.7051963210105896e-02 3.1790438294410706e-01</leafValues></_>
        <_>
          <internalNodes>
            0 -1 704 -4.5894109643995762e-04</internalNodes>
          <leafValues>
            3.1725490093231201e-01 -1.0686665773391724e-01</leafValues></_>
        <_>
          <internalNodes>
            0 -1 341 -8.9878732978831977e-05</internalNodes>
          <leafValues>
            -7.7065449953079224e-01 4.7322474420070648e-02</leafValues></_>
        <_>
          <internalNodes>
            0 -1 716 -7.3078530840575695e-04</internalNodes>
          <leafValues>
            2.7457064390182495e-01 -1.3322488963603973e-01</leafValues></_>
        <_>
          <internalNodes>
            0 -1 722 1.7340248450636864e-04</internalNodes>
          <leafValues>
            -1.1263041198253632e-01 2.8694915771484375e-01</leafValues></_>
        <_>
          <internalNodes>
            0 -1 462 3.6515771171252709e-06</internalNodes>
          <leafValues>
            -1.8834060430526733e-01 1.8572027981281281e-01</leafValues></_>
        <_>
          <internalNodes>
            0 -1 655 -7.0538146246690303e-05</internalNodes>
          <leafValues>
            -6.3379687070846558e-01 5.5212143808603287e-02</leafValues></_>
        <_>
          <internalNodes>
            0 -1 61 -4.3050441890954971e-03</internalNodes>
          <leafValues>
            2.2164824604988098e-01 -1.5899460017681122e-01</leafValues></_>
        <_>
          <internalNodes>
            0 -1 354 1.2245895341038704e-03</internalNodes>
          <leafValues>
            -1.1375642567873001e-01 3.2562595605850220e-01</leafValues></_>
        <_>
          <internalNodes>
            0 -1 356 -5.1669857930392027e-04</internalNodes>
          <leafValues>
            2.7492055296897888e-01 -1.3330884277820587e-01</leafValues></_>
        <_>
          <internalNodes>
            0 -1 398 -9.1612411779351532e-05</internalNodes>
          <leafValues>
            -4.5808228850364685e-01 7.9962246119976044e-02</leafValues></_>
        <_>
          <internalNodes>
            0 -1 397 1.5415795496664941e-04</internalNodes>
          <leafValues>
            5.8653526008129120e-02 -5.7465493679046631e-01</leafValues></_>
        <_>
          <internalNodes>
            0 -1 597 1.9642952247522771e-04</internalNodes>
          <leafValues>
            -1.9012586772441864e-01 1.7492629587650299e-01</leafValues></_>
        <_>
          <internalNodes>
            0 -1 604 3.0151995815685950e-05</internalNodes>
          <leafValues>
            7.5220175087451935e-02 -4.6396633982658386e-01</leafValues></_>
        <_>
          <internalNodes>
            0 -1 173 -2.3913069162517786e-04</internalNodes>
          <leafValues>
            2.6381009817123413e-01 -1.3779218494892120e-01</leafValues></_>
        <_>
          <internalNodes>
            0 -1 0 -1.7515389117761515e-05</internalNodes>
          <leafValues>
            -2.5778523087501526e-01 1.3958181440830231e-01</leafValues></_>
        <_>
          <internalNodes>
            0 -1 657 2.7953043172601610e-05</internalNodes>
          <leafValues>
            8.1844322383403778e-02 -3.9952087402343750e-01</leafValues></_>
        <_>
          <internalNodes>
            0 -1 774 -1.7657292801231961e-06</internalNodes>
          <leafValues>
            2.2316029667854309e-01 -1.5185655653476715e-01</leafValues></_>
        <_>
          <internalNodes>
            0 -1 610 2.0422774832695723e-03</internalNodes>
          <leafValues>
            -1.7985436320304871e-01 1.9933040440082550e-01</leafValues></_>
        <_>
          <internalNodes>
            0 -1 66 1.9876189529895782e-02</internalNodes>
          <leafValues>
            4.9056079238653183e-02 -6.5726619958877563e-01</leafValues></_>
        <_>
          <internalNodes>
            0 -1 346 2.9758771415799856e-04</internalNodes>
          <leafValues>
            -1.3997261226177216e-01 2.4194984138011932e-01</leafValues></_>
        <_>
          <internalNodes>
            0 -1 269 9.6627650782465935e-04</internalNodes>
          <leafValues>
            5.0826288759708405e-02 -6.6954690217971802e-01</leafValues></_>
        <_>
          <internalNodes>
            0 -1 565 3.4024946216959506e-05</internalNodes>
          <leafValues>
            5.0508193671703339e-02 -5.6250900030136108e-01</leafValues></_>
        <_>
          <internalNodes>
            0 -1 435 -2.2797990823164582e-04</internalNodes>
          <leafValues>
            2.4206881225109100e-01 -1.4349994063377380e-01</leafValues></_>
        <_>
          <internalNodes>
            0 -1 589 5.2544119535014033e-04</internalNodes>
          <leafValues>
            -1.7524380981922150e-01 2.1590620279312134e-01</leafValues></_>
        <_>
          <internalNodes>
            0 -1 218 1.7931438378582243e-06</internalNodes>
          <leafValues>
            -1.5881301462650299e-01 2.1649584174156189e-01</leafValues></_>
        <_>
          <internalNodes>
            0 -1 203 -2.6137783424928784e-04</internalNodes>
          <leafValues>
            2.0564776659011841e-01 -1.8465231359004974e-01</leafValues></_>
        <_>
          <internalNodes>
            0 -1 233 9.0341920440550894e-05</internalNodes>
          <leafValues>
            1.1561980098485947e-01 -3.3031809329986572e-01</leafValues></_>
        <_>
          <internalNodes>
            0 -1 788 -1.8407000652587158e-06</internalNodes>
          <leafValues>
            2.0449908077716827e-01 -1.6600455343723297e-01</leafValues></_>
        <_>
          <internalNodes>
            0 -1 643 3.6279972846386954e-05</internalNodes>
          <leafValues>
            1.1297518014907837e-01 -3.1369796395301819e-01</leafValues></_>
        <_>
          <internalNodes>
            0 -1 29 7.8336532169487327e-05</internalNodes>
          <leafValues>
            -6.1522386968135834e-02 5.4498577117919922e-01</leafValues></_>
        <_>
          <internalNodes>
            0 -1 35 3.4287972994206939e-06</internalNodes>
          <leafValues>
            -1.4865322411060333e-01 2.1954174339771271e-01</leafValues></_>
        <_>
          <internalNodes>
            0 -1 676 1.0035657032858580e-04</internalNodes>
          <leafValues>
            -1.2859804928302765e-01 2.4658739566802979e-01</leafValues></_></weakClassifiers></_>
    <!-- stage 10 -->
    <_>
      <maxWeakCount>42</maxWeakCount>
      <stageThreshold>-1.7696508169174194e+00</stageThreshold>
      <weakClassifiers>
        <_>
          <internalNodes>
            0 -1 475 3.1623695977032185e-03</internalNodes>
          <leafValues>
            -7.7832359075546265e-01 -5.3408676385879517e-01</leafValues></_>
        <_>
          <internalNodes>
            0 -1 345 1.8423174878989812e-06</internalNodes>
          <leafValues>
            -3.5149127244949341e-01 1.9286632537841797e-02</leafValues></_>
        <_>
          <internalNodes>
            0 -1 424 9.7612617537379265e-05</internalNodes>
          <leafValues>
            -1.2822809815406799e-01 2.5216919183731079e-01</leafValues></_>
        <_>
          <internalNodes>
            0 -1 457 -1.0134137701243162e-03</internalNodes>
          <leafValues>
            1.5836092829704285e-01 -2.0402112603187561e-01</leafValues></_>
        <_>
          <internalNodes>
            0 -1 48 1.7207497358322144e-01</internalNodes>
          <leafValues>
            -2.4901160970330238e-02 5.7717221975326538e-01</leafValues></_>
        <_>
          <internalNodes>
            0 -1 627 3.9556017145514488e-03</internalNodes>
          <leafValues>
            -2.3793610930442810e-01 1.9197161495685577e-01</leafValues></_>
        <_>
          <internalNodes>
            0 -1 310 8.7050575530156493e-05</internalNodes>
          <leafValues>
            8.6641937494277954e-02 -4.8232299089431763e-01</leafValues></_>
        <_>
          <internalNodes>
            0 -1 242 -1.8903538584709167e-02</internalNodes>
          <leafValues>
            -7.4380034208297729e-01 3.6511588841676712e-02</leafValues></_>
        <_>
          <internalNodes>
            0 -1 338 1.2389391195029020e-03</internalNodes>
          <leafValues>
            -1.2703020870685577e-01 2.9415765404701233e-01</leafValues></_>
        <_>
          <internalNodes>
            0 -1 304 2.9046710551483557e-05</internalNodes>
          <leafValues>
            1.0089687258005142e-01 -3.4241271018981934e-01</leafValues></_>
        <_>
          <internalNodes>
            0 -1 304 -2.6864760002354160e-05</internalNodes>
          <leafValues>
            -3.1954777240753174e-01 1.0130220651626587e-01</leafValues></_>
        <_>
          <internalNodes>
            0 -1 109 6.0206674970686436e-04</internalNodes>
          <leafValues>
            -1.1142040044069290e-01 2.9632824659347534e-01</leafValues></_>
        <_>
          <internalNodes>
            0 -1 287 -5.2964931819587946e-04</internalNodes>
          <leafValues>
            2.7992954850196838e-01 -1.2113240361213684e-01</leafValues></_>
        <_>
          <internalNodes>
            0 -1 282 2.2690780460834503e-02</internalNodes>
          <leafValues>
            9.7991682589054108e-02 -3.3045825362205505e-01</leafValues></_>
        <_>
          <internalNodes>
            0 -1 220 2.8667263686656952e-02</internalNodes>
          <leafValues>
            -8.0006159842014313e-02 4.4262948632240295e-01</leafValues></_>
        <_>
          <internalNodes>
            0 -1 622 1.1169913341291249e-04</internalNodes>
          <leafValues>
            3.7508238106966019e-02 -8.7381017208099365e-01</leafValues></_>
        <_>
          <internalNodes>
            0 -1 136 -8.0182291567325592e-02</internalNodes>
          <leafValues>
            -7.9894411563873291e-01 2.9228670522570610e-02</leafValues></_>
        <_>
          <internalNodes>
            0 -1 163 -5.9706647880375385e-03</internalNodes>
          <leafValues>
            1.5479336678981781e-01 -2.4961408972740173e-01</leafValues></_>
        <_>
          <internalNodes>
            0 -1 726 2.9767199885100126e-04</internalNodes>
          <leafValues>
            -1.2217596918344498e-01 2.7364879846572876e-01</leafValues></_>
        <_>
          <internalNodes>
            0 -1 681 -5.2610208513215184e-04</internalNodes>
          <leafValues>
            2.0787276327610016e-01 -1.6085109114646912e-01</leafValues></_>
        <_>
          <internalNodes>
            0 -1 513 -1.5349421300925314e-04</internalNodes>
          <leafValues>
            -8.8920491933822632e-01 3.4889429807662964e-02</leafValues></_>
        <_>
          <internalNodes>
            0 -1 573 7.8012445010244846e-04</internalNodes>
          <leafValues>
            -2.0599818229675293e-01 1.5426059067249298e-01</leafValues></_>
        <_>
          <internalNodes>
            0 -1 170 -3.2349542016163468e-04</internalNodes>
          <leafValues>
            2.0385582745075226e-01 -1.6647160053253174e-01</leafValues></_>
        <_>
          <internalNodes>
            0 -1 577 8.4354440332390368e-05</internalNodes>
          <leafValues>
            -2.0268619060516357e-01 1.7517228424549103e-01</leafValues></_>
        <_>
          <internalNodes>
            0 -1 1 -3.5101300454698503e-04</internalNodes>
          <leafValues>
            1.9784224033355713e-01 -1.8604239821434021e-01</leafValues></_>
        <_>
          <internalNodes>
            0 -1 124 3.1587448902428150e-03</internalNodes>
          <leafValues>
            -1.3390162587165833e-01 2.6667088270187378e-01</leafValues></_>
        <_>
          <internalNodes>
            0 -1 217 -1.5678901690989733e-03</internalNodes>
          <leafValues>
            -7.1909856796264648e-01 4.7483608126640320e-02</leafValues></_>
        <_>
          <internalNodes>
            0 -1 786 -1.9821175101242261e-06</internalNodes>
          <leafValues>
            1.7701302468776703e-01 -1.7615975439548492e-01</leafValues></_>
        <_>
          <internalNodes>
            0 -1 317 -1.1762875365093350e-03</internalNodes>
          <leafValues>
            -5.9248083829879761e-01 5.1564663648605347e-02</leafValues></_>
        <_>
          <internalNodes>
            0 -1 62 9.4260764308273792e-04</internalNodes>
          <leafValues>
            -1.2475337088108063e-01 2.7424898743629456e-01</leafValues></_>
        <_>
          <internalNodes>
            0 -1 437 1.5629618428647518e-04</internalNodes>
          <leafValues>
            5.9483613818883896e-02 -5.5359780788421631e-01</leafValues></_>
        <_>
          <internalNodes>
            0 -1 439 -5.6929282436612993e-05</internalNodes>
          <leafValues>
            -5.1556301116943359e-01 6.0593131929636002e-02</leafValues></_>
        <_>
          <internalNodes>
            0 -1 412 5.3607486188411713e-04</internalNodes>
          <leafValues>
            -9.5165230333805084e-02 4.0090760588645935e-01</leafValues></_>
        <_>
          <internalNodes>
            0 -1 361 -5.1676313159987330e-04</internalNodes>
          <leafValues>
            2.7623257040977478e-01 -1.3421474397182465e-01</leafValues></_>
        <_>
          <internalNodes>
            0 -1 446 -1.7458861693739891e-03</internalNodes>
          <leafValues>
            -7.8612321615219116e-01 4.0595024824142456e-02</leafValues></_>
        <_>
          <internalNodes>
            0 -1 238 2.2433119011111557e-04</internalNodes>
          <leafValues>
            -8.7189272046089172e-02 3.9859250187873840e-01</leafValues></_>
        <_>
          <internalNodes>
            0 -1 151 -1.1369311250746250e-03</internalNodes>
          <leafValues>
            3.0618917942047119e-01 -9.8144210875034332e-02</leafValues></_>
        <_>
          <internalNodes>
            0 -1 215 -1.0467048559803516e-04</internalNodes>
          <leafValues>
            -5.7966393232345581e-01 5.6733559817075729e-02</leafValues></_>
        <_>
          <internalNodes>
            0 -1 64 -4.8340606736019254e-04</internalNodes>
          <leafValues>
            3.0022105574607849e-01 -1.0972934216260910e-01</leafValues></_>
        <_>
          <internalNodes>
            0 -1 155 3.4834344405680895e-03</internalNodes>
          <leafValues>
            -2.0621325075626373e-01 1.6182601451873779e-01</leafValues></_>
        <_>
          <internalNodes>
            0 -1 253 2.2699940018355846e-05</internalNodes>
          <leafValues>
            9.5260530710220337e-02 -3.7966182827949524e-01</leafValues></_>
        <_>
          <internalNodes>
            0 -1 3 3.4297695383429527e-03</internalNodes>
          <leafValues>
            6.1402872204780579e-02 -5.5052006244659424e-01</leafValues></_></weakClassifiers></_>
    <!-- stage 11 -->
    <_>
      <maxWeakCount>52</maxWeakCount>
      <stageThreshold>-1.9192035198211670e+00</stageThreshold>
      <weakClassifiers>
        <_>
          <internalNodes>
            0 -1 587 2.2044833167456090e-04</internalNodes>
          <leafValues>
            -7.3310148715972900e-01 -4.4817727804183960e-01</leafValues></_>
        <_>
          <internalNodes>
            0 -1 405 -5.4783347994089127e-02</internalNodes>
          <leafValues>
            1.3463731110095978e-01 -3.0023112893104553e-01</leafValues></_>
        <_>
          <internalNodes>
            0 -1 511 -3.1607990968041122e-04</internalNodes>
          <leafValues>
            -5.7358664274215698e-01 5.0668127834796906e-02</leafValues></_>
        <_>
          <internalNodes>
            0 -1 239 -2.2862150217406452e-04</internalNodes>
          <leafValues>
            2.3151031136512756e-01 -1.4345324039459229e-01</leafValues></_>
        <_>
          <internalNodes>
            0 -1 512 2.8690983890555799e-04</internalNodes>
          <leafValues>
            5.1781769841909409e-02 -6.0211324691772461e-01</leafValues></_>
        <_>
          <internalNodes>
            0 -1 500 -2.9423070373013616e-04</internalNodes>
          <leafValues>
            3.1400370597839355e-01 -9.4329729676246643e-02</leafValues></_>
        <_>
          <internalNodes>
            0 -1 487 2.6826531393453479e-04</internalNodes>
          <leafValues>
            -1.2722636759281158e-01 3.1893905997276306e-01</leafValues></_>
        <_>
          <internalNodes>
            0 -1 562 -2.9248047212604433e-05</internalNodes>
          <leafValues>
            -5.1504963636398315e-01 5.2203487604856491e-02</leafValues></_>
        <_>
          <internalNodes>
            0 -1 504 1.5192514983937144e-03</internalNodes>
          <leafValues>
            -2.3401238024234772e-01 1.5312246978282928e-01</leafValues></_>
        <_>
          <internalNodes>
            0 -1 522 -7.5408504926599562e-05</internalNodes>
          <leafValues>
            -8.2677125930786133e-01 1.5479872003197670e-02</leafValues></_>
        <_>
          <internalNodes>
            0 -1 195 1.5602845815010369e-04</internalNodes>
          <leafValues>
            -1.1227221786975861e-01 2.7608561515808105e-01</leafValues></_>
        <_>
          <internalNodes>
            0 -1 229 3.6336474295239896e-05</internalNodes>
          <leafValues>
            5.8490958064794540e-02 -4.9297851324081421e-01</leafValues></_>
        <_>
          <internalNodes>
            0 -1 624 8.4571656771004200e-05</internalNodes>
          <leafValues>
            5.0706602632999420e-02 -7.3880565166473389e-01</leafValues></_>
        <_>
          <internalNodes>
            0 -1 502 7.3712528683245182e-04</internalNodes>
          <leafValues>
            -1.3721683621406555e-01 2.4250625073909760e-01</leafValues></_>
        <_>
          <internalNodes>
            0 -1 415 8.1544487329665571e-05</internalNodes>
          <leafValues>
            -1.7817083001136780e-01 1.9377456605434418e-01</leafValues></_>
        <_>
          <internalNodes>
            0 -1 738 2.0809206762351096e-04</internalNodes>
          <leafValues>
            -9.5647759735584259e-02 3.4329578280448914e-01</leafValues></_>
        <_>
          <internalNodes>
            0 -1 115 -1.3473820872604847e-03</internalNodes>
          <leafValues>
            2.3503090441226959e-01 -1.3330951333045959e-01</leafValues></_>
        <_>
          <internalNodes>
            0 -1 645 -4.1623043216532096e-05</internalNodes>
          <leafValues>
            -6.7717814445495605e-01 3.8168482482433319e-02</leafValues></_>
        <_>
          <internalNodes>
            0 -1 702 1.2841110583394766e-04</internalNodes>
          <leafValues>
            -1.1301597952842712e-01 2.7242013812065125e-01</leafValues></_>
        <_>
          <internalNodes>
            0 -1 481 1.9693291687872261e-04</internalNodes>
          <leafValues>
            -1.6431105136871338e-01 1.8923851847648621e-01</leafValues></_>
        <_>
          <internalNodes>
            0 -1 347 9.3595031648874283e-03</internalNodes>
          <leafValues>
            6.7579582333564758e-02 -4.7925302386283875e-01</leafValues></_>
        <_>
          <internalNodes>
            0 -1 590 4.0210602492152248e-06</internalNodes>
          <leafValues>
            -2.1133233606815338e-01 1.5369696915149689e-01</leafValues></_>
        <_>
          <internalNodes>
            0 -1 618 5.1413768233032897e-05</internalNodes>
          <leafValues>
            4.2132653295993805e-02 -7.1470499038696289e-01</leafValues></_>
        <_>
          <internalNodes>
            0 -1 463 -2.7961659361608326e-04</internalNodes>
          <leafValues>
            2.4972906708717346e-01 -1.2237544357776642e-01</leafValues></_>
        <_>
          <internalNodes>
            0 -1 402 3.1316136301029474e-05</internalNodes>
          <leafValues>
            6.5772637724876404e-02 -4.6148261427879333e-01</leafValues></_>
        <_>
          <internalNodes>
            0 -1 140 8.1362418830394745e-02</internalNodes>
          <leafValues>
            5.8144304901361465e-02 -4.6953150629997253e-01</leafValues></_>
        <_>
          <internalNodes>
            0 -1 93 -3.5142537672072649e-04</internalNodes>
          <leafValues>
            2.5420874357223511e-01 -1.2013540416955948e-01</leafValues></_>
        <_>
          <internalNodes>
            0 -1 689 1.8420915921524283e-06</internalNodes>
          <leafValues>
            -1.7362536489963531e-01 1.7230793833732605e-01</leafValues></_>
        <_>
          <internalNodes>
            0 -1 178 5.7091379858320579e-05</internalNodes>
          <leafValues>
            7.7598266303539276e-02 -3.8732585310935974e-01</leafValues></_>
        <_>
          <internalNodes>
            0 -1 592 -1.2948954245075583e-03</internalNodes>
          <leafValues>
            3.7653800845146179e-01 -8.3430379629135132e-02</leafValues></_>
        <_>
          <internalNodes>
            0 -1 45 2.6422180235385895e-03</internalNodes>
          <leafValues>
            5.5670522153377533e-02 -5.9050244092941284e-01</leafValues></_>
        <_>
          <internalNodes>
            0 -1 171 2.3915966972708702e-02</internalNodes>
          <leafValues>
            -9.3793302774429321e-02 3.5590273141860962e-01</leafValues></_>
        <_>
          <internalNodes>
            0 -1 172 -2.7796976268291473e-02</internalNodes>
          <leafValues>
            2.1222689747810364e-01 -1.9182090461254120e-01</leafValues></_>
        <_>
          <internalNodes>
            0 -1 515 4.0321243432117626e-05</internalNodes>
          <leafValues>
            5.1746737211942673e-02 -6.0157364606857300e-01</leafValues></_>
        <_>
          <internalNodes>
            0 -1 584 3.8834376027807593e-04</internalNodes>
          <leafValues>
            -1.4600868523120880e-01 2.2374068200588226e-01</leafValues></_>
        <_>
          <internalNodes>
            0 -1 682 -2.2995198378339410e-05</internalNodes>
          <leafValues>
            -3.8284057378768921e-01 8.9308269321918488e-02</leafValues></_>
        <_>
          <internalNodes>
            0 -1 100 -4.1308958316221833e-04</internalNodes>
          <leafValues>
            2.6110064983367920e-01 -1.2410974502563477e-01</leafValues></_>
        <_>
          <internalNodes>
            0 -1 464 8.5066683823242784e-05</internalNodes>
          <leafValues>
            -1.6295951604843140e-01 1.8431563675403595e-01</leafValues></_>
        <_>
          <internalNodes>
            0 -1 38 -3.6351382732391357e-01</internalNodes>
          <leafValues>
            5.2966922521591187e-01 -7.0506304502487183e-02</leafValues></_>
        <_>
          <internalNodes>
            0 -1 244 1.8243918020743877e-05</internalNodes>
          <leafValues>
            -1.6651271283626556e-01 2.0477056503295898e-01</leafValues></_>
        <_>
          <internalNodes>
            0 -1 607 -1.4208990614861250e-04</internalNodes>
          <leafValues>
            -7.9501557350158691e-01 4.0178395807743073e-02</leafValues></_>
        <_>
          <internalNodes>
            0 -1 611 -4.5234584831632674e-05</internalNodes>
          <leafValues>
            -7.3816776275634766e-01 3.1677577644586563e-02</leafValues></_>
        <_>
          <internalNodes>
            0 -1 569 -1.5880245482549071e-03</internalNodes>
          <leafValues>
            3.1654214859008789e-01 -1.0724347829818726e-01</leafValues></_>
        <_>
          <internalNodes>
            0 -1 355 1.0044986265711486e-04</internalNodes>
          <leafValues>
            -1.2207437306642532e-01 2.6547011733055115e-01</leafValues></_>
        <_>
          <internalNodes>
            0 -1 656 2.9128932510502636e-05</internalNodes>
          <leafValues>
            7.2331532835960388e-02 -4.3976017832756042e-01</leafValues></_>
        <_>
          <internalNodes>
            0 -1 247 8.6218555225059390e-05</internalNodes>
          <leafValues>
            6.8443752825260162e-02 -4.4501093029975891e-01</leafValues></_>
        <_>
          <internalNodes>
            0 -1 445 2.6075280038639903e-04</internalNodes>
          <leafValues>
            -1.3068167865276337e-01 2.4544881284236908e-01</leafValues></_>
        <_>
          <internalNodes>
            0 -1 273 4.2108993511646986e-05</internalNodes>
          <leafValues>
            1.0431719571352005e-01 -3.0551183223724365e-01</leafValues></_>
        <_>
          <internalNodes>
            0 -1 491 -2.7049318305216730e-04</internalNodes>
          <leafValues>
            3.0845779180526733e-01 -1.0195598006248474e-01</leafValues></_>
        <_>
          <internalNodes>
            0 -1 680 3.8617479731328785e-04</internalNodes>
          <leafValues>
            -9.7922377288341522e-02 3.1823748350143433e-01</leafValues></_>
        <_>
          <internalNodes>
            0 -1 636 4.2817569919861853e-05</internalNodes>
          <leafValues>
            5.0205953419208527e-02 -6.5235483646392822e-01</leafValues></_>
        <_>
          <internalNodes>
            0 -1 523 -8.1057747593149543e-04</internalNodes>
          <leafValues>
            2.0771858096122742e-01 -1.5291057527065277e-01</leafValues></_></weakClassifiers></_>
    <!-- stage 12 -->
    <_>
      <maxWeakCount>48</maxWeakCount>
      <stageThreshold>-1.8589675426483154e+00</stageThreshold>
      <weakClassifiers>
        <_>
          <internalNodes>
            0 -1 41 4.8097357648657635e-05</internalNodes>
          <leafValues>
            -7.0073801279067993e-01 -3.4827587008476257e-01</leafValues></_>
        <_>
          <internalNodes>
            0 -1 182 4.4000265188515186e-04</internalNodes>
          <leafValues>
            -2.8888717293739319e-01 6.4361520111560822e-02</leafValues></_>
        <_>
          <internalNodes>
            0 -1 614 3.7369866277003894e-06</internalNodes>
          <leafValues>
            -2.1706022322177887e-01 1.4042940735816956e-01</leafValues></_>
        <_>
          <internalNodes>
            0 -1 532 4.3291673064231873e-03</internalNodes>
          <leafValues>
            -1.0007725656032562e-01 3.0169636011123657e-01</leafValues></_>
        <_>
          <internalNodes>
            0 -1 499 -1.8288768478669226e-04</internalNodes>
          <leafValues>
            2.0472855865955353e-01 -1.3996355235576630e-01</leafValues></_>
        <_>
          <internalNodes>
            0 -1 454 5.4181382438400760e-05</internalNodes>
          <leafValues>
            1.0846418142318726e-01 -4.6464902162551880e-01</leafValues></_>
        <_>
          <internalNodes>
            0 -1 208 -2.0107388263568282e-04</internalNodes>
          <leafValues>
            1.9400677084922791e-01 -1.6453315317630768e-01</leafValues></_>
        <_>
          <internalNodes>
            0 -1 385 1.3796953484416008e-02</internalNodes>
          <leafValues>
            8.2667186856269836e-02 -5.3468418121337891e-01</leafValues></_>
        <_>
          <internalNodes>
            0 -1 42 2.0712634921073914e-01</internalNodes>
          <leafValues>
            -7.7084958553314209e-02 5.8453243970870972e-01</leafValues></_>
        <_>
          <internalNodes>
            0 -1 461 -1.0308748111128807e-02</internalNodes>
          <leafValues>
            2.1825292706489563e-01 -1.4017675817012787e-01</leafValues></_>
        <_>
          <internalNodes>
            0 -1 708 -1.1186000483576208e-04</internalNodes>
          <leafValues>
            2.6809534430503845e-01 -1.1020772904157639e-01</leafValues></_>
        <_>
          <internalNodes>
            0 -1 642 5.1701084885280579e-05</internalNodes>
          <leafValues>
            7.2286866605281830e-02 -4.0166738629341125e-01</leafValues></_>
        <_>
          <internalNodes>
            0 -1 97 -1.2223643716424704e-04</internalNodes>
          <leafValues>
            3.2545018196105957e-01 -8.9337028563022614e-02</leafValues></_>
        <_>
          <internalNodes>
            0 -1 194 1.0286471806466579e-03</internalNodes>
          <leafValues>
            4.8834707587957382e-02 -6.0819453001022339e-01</leafValues></_>
        <_>
          <internalNodes>
            0 -1 152 1.1084384750574827e-03</internalNodes>
          <leafValues>
            -1.7424052953720093e-01 1.6336475312709808e-01</leafValues></_>
        <_>
          <internalNodes>
            0 -1 783 -3.4466968372726114e-06</internalNodes>
          <leafValues>
            1.8105013668537140e-01 -1.5970963239669800e-01</leafValues></_>
        <_>
          <internalNodes>
            0 -1 552 4.0910948882810771e-05</internalNodes>
          <leafValues>
            5.0105221569538116e-02 -6.2534487247467041e-01</leafValues></_>
        <_>
          <internalNodes>
            0 -1 331 2.8416040004231036e-04</internalNodes>
          <leafValues>
            -1.1819159239530563e-01 2.4680843949317932e-01</leafValues></_>
        <_>
          <internalNodes>
            0 -1 90 -8.9427269995212555e-03</internalNodes>
          <leafValues>
            -7.0088368654251099e-01 4.2306784540414810e-02</leafValues></_>
        <_>
          <internalNodes>
            0 -1 34 2.0787850953638554e-03</internalNodes>
          <leafValues>
            -1.6003842651844025e-01 1.8217211961746216e-01</leafValues></_>
        <_>
          <internalNodes>
            0 -1 701 1.3672698696609586e-04</internalNodes>
          <leafValues>
            -1.0962674021720886e-01 2.7605366706848145e-01</leafValues></_>
        <_>
          <internalNodes>
            0 -1 551 -3.5065336851403117e-04</internalNodes>
          <leafValues>
            2.3411147296428680e-01 -1.1863373219966888e-01</leafValues></_>
        <_>
          <internalNodes>
            0 -1 720 4.0313380304723978e-04</internalNodes>
          <leafValues>
            -1.1497617512941360e-01 2.8178027272224426e-01</leafValues></_>
        <_>
          <internalNodes>
            0 -1 625 2.3971620976226404e-05</internalNodes>
          <leafValues>
            7.8704886138439178e-02 -4.0867516398429871e-01</leafValues></_>
        <_>
          <internalNodes>
            0 -1 663 -1.8370010657235980e-03</internalNodes>
          <leafValues>
            1.8809807300567627e-01 -1.5916855633258820e-01</leafValues></_>
        <_>
          <internalNodes>
            0 -1 422 9.8508521914482117e-03</internalNodes>
          <leafValues>
            9.4560861587524414e-02 -3.1698790192604065e-01</leafValues></_>
        <_>
          <internalNodes>
            0 -1 23 5.0592273473739624e-02</internalNodes>
          <leafValues>
            -9.8702438175678253e-02 3.2704114913940430e-01</leafValues></_>
        <_>
          <internalNodes>
            0 -1 285 1.7859956622123718e-01</internalNodes>
          <leafValues>
            -9.2432215809822083e-02 3.2039004564285278e-01</leafValues></_>
        <_>
          <internalNodes>
            0 -1 142 -2.4809507885947824e-04</internalNodes>
          <leafValues>
            2.9501360654830933e-01 -1.0899829864501953e-01</leafValues></_>
        <_>
          <internalNodes>
            0 -1 18 -8.4286963101476431e-05</internalNodes>
          <leafValues>
            -2.0298956334590912e-01 1.3571764528751373e-01</leafValues></_>
        <_>
          <internalNodes>
            0 -1 135 -5.1227649673819542e-03</internalNodes>
          <leafValues>
            -6.6190278530120850e-01 3.9363931864500046e-02</leafValues></_>
        <_>
          <internalNodes>
            0 -1 243 8.4833009168505669e-03</internalNodes>
          <leafValues>
            -6.3602901995182037e-02 4.7333931922912598e-01</leafValues></_>
        <_>
          <internalNodes>
            0 -1 374 -1.9616089412011206e-04</internalNodes>
          <leafValues>
            1.8596631288528442e-01 -1.4954935014247894e-01</leafValues></_>
        <_>
          <internalNodes>
            0 -1 549 4.0887847717385739e-05</internalNodes>
          <leafValues>
            7.8187078237533569e-02 -3.8658931851387024e-01</leafValues></_>
        <_>
          <internalNodes>
            0 -1 150 -1.3631136971525848e-04</internalNodes>
          <leafValues>
            2.5682368874549866e-01 -1.2519279122352600e-01</leafValues></_>
        <_>
          <internalNodes>
            0 -1 737 3.0872994102537632e-03</internalNodes>
          <leafValues>
            6.6663198173046112e-02 -4.4152012467384338e-01</leafValues></_>
        <_>
          <internalNodes>
            0 -1 768 -1.2087703216820955e-03</internalNodes>
          <leafValues>
            -3.3647564053535461e-01 8.0990411341190338e-02</leafValues></_>
        <_>
          <internalNodes>
            0 -1 778 3.7930128746666014e-04</internalNodes>
          <leafValues>
            -8.2510307431221008e-02 3.7891969084739685e-01</leafValues></_>
        <_>
          <internalNodes>
            0 -1 343 1.7296857549808919e-04</internalNodes>
          <leafValues>
            4.0298037230968475e-02 -7.7284711599349976e-01</leafValues></_>
        <_>
          <internalNodes>
            0 -1 360 -6.4833997748792171e-04</internalNodes>
          <leafValues>
            2.5617641210556030e-01 -1.2176055461168289e-01</leafValues></_>
        <_>
          <internalNodes>
            0 -1 206 1.4220266044139862e-01</internalNodes>
          <leafValues>
            3.6526516079902649e-02 -8.3166879415512085e-01</leafValues></_>
        <_>
          <internalNodes>
            0 -1 288 -2.1048555936431512e-05</internalNodes>
          <leafValues>
            1.1305105686187744e-01 -2.3966392874717712e-01</leafValues></_>
        <_>
          <internalNodes>
            0 -1 306 -2.4051711079664528e-04</internalNodes>
          <leafValues>
            1.9753457605838776e-01 -1.5876112878322601e-01</leafValues></_>
        <_>
          <internalNodes>
            0 -1 442 -4.0743463614489883e-05</internalNodes>
          <leafValues>
            -5.8058094978332520e-01 5.3277198225259781e-02</leafValues></_>
        <_>
          <internalNodes>
            0 -1 438 3.2883952371776104e-04</internalNodes>
          <leafValues>
            -1.1996146291494370e-01 2.8341788053512573e-01</leafValues></_>
        <_>
          <internalNodes>
            0 -1 209 -4.0677979588508606e-02</internalNodes>
          <leafValues>
            -3.6156192421913147e-01 8.6182370781898499e-02</leafValues></_>
        <_>
          <internalNodes>
            0 -1 650 1.7476533539593220e-03</internalNodes>
          <leafValues>
            -1.2403853237628937e-01 2.4917556345462799e-01</leafValues></_>
        <_>
          <internalNodes>
            0 -1 686 -2.4498836137354374e-04</internalNodes>
          <leafValues>
            2.4993044137954712e-01 -1.3870516419410706e-01</leafValues></_></weakClassifiers></_>
    <!-- stage 13 -->
    <_>
      <maxWeakCount>54</maxWeakCount>
      <stageThreshold>-1.8718065023422241e+00</stageThreshold>
      <weakClassifiers>
        <_>
          <internalNodes>
            0 -1 40 1.1927601008210331e-04</internalNodes>
          <leafValues>
            -6.8936097621917725e-01 -1.5953306853771210e-01</leafValues></_>
        <_>
          <internalNodes>
            0 -1 314 7.7807868365198374e-05</internalNodes>
          <leafValues>
            -3.7088668346405029e-01 -2.1413175389170647e-02</leafValues></_>
        <_>
          <internalNodes>
            0 -1 70 5.9800076996907592e-04</internalNodes>
          <leafValues>
            -1.2809440493583679e-01 2.3501391708850861e-01</leafValues></_>
        <_>
          <internalNodes>
            0 -1 167 -2.3358787875622511e-03</internalNodes>
          <leafValues>
            3.1518092751502991e-01 -8.6905755102634430e-02</leafValues></_>
        <_>
          <internalNodes>
            0 -1 107 1.2699645594693720e-04</internalNodes>
          <leafValues>
            -1.1346377432346344e-01 2.3428276181221008e-01</leafValues></_>
        <_>
          <internalNodes>
            0 -1 248 6.7500176373869181e-04</internalNodes>
          <leafValues>
            6.1763897538185120e-02 -4.4200927019119263e-01</leafValues></_>
        <_>
          <internalNodes>
            0 -1 394 -2.9062625253573060e-04</internalNodes>
          <leafValues>
            2.9814034700393677e-01 -8.4814608097076416e-02</leafValues></_>
        <_>
          <internalNodes>
            0 -1 368 1.6663085669279099e-02</internalNodes>
          <leafValues>
            8.0097027122974396e-02 -3.2745641469955444e-01</leafValues></_>
        <_>
          <internalNodes>
            0 -1 652 2.2382193947123596e-06</internalNodes>
          <leafValues>
            -1.1437444388866425e-01 2.3013287782669067e-01</leafValues></_>
        <_>
          <internalNodes>
            0 -1 204 5.6592623877804726e-05</internalNodes>
          <leafValues>
            -1.0936161130666733e-01 3.1579151749610901e-01</leafValues></_>
        <_>
          <internalNodes>
            0 -1 296 1.8145481590181589e-05</internalNodes>
          <leafValues>
            1.0869777202606201e-01 -3.1194871664047241e-01</leafValues></_>
        <_>
          <internalNodes>
            0 -1 353 -1.0654737707227468e-04</internalNodes>
          <leafValues>
            1.5392619371414185e-01 -1.9402258098125458e-01</leafValues></_>
        <_>
          <internalNodes>
            0 -1 205 -1.1418321728706360e-01</internalNodes>
          <leafValues>
            -8.6996364593505859e-01 3.7294667214155197e-02</leafValues></_>
        <_>
          <internalNodes>
            0 -1 291 5.4475494835060090e-05</internalNodes>
          <leafValues>
            2.5061996653676033e-02 -7.7556520700454712e-01</leafValues></_>
        <_>
          <internalNodes>
            0 -1 755 3.6606134017347358e-06</internalNodes>
          <leafValues>
            -1.5321524441242218e-01 1.8502068519592285e-01</leafValues></_>
        <_>
          <internalNodes>
            0 -1 755 -1.9070394046138972e-06</internalNodes>
          <leafValues>
            2.2483532130718231e-01 -1.3012777268886566e-01</leafValues></_>
        <_>
          <internalNodes>
            0 -1 773 6.4244319219142199e-04</internalNodes>
          <leafValues>
            7.6800137758255005e-02 -3.7261933088302612e-01</leafValues></_>
        <_>
          <internalNodes>
            0 -1 286 4.7442800132557750e-04</internalNodes>
          <leafValues>
            -9.3016020953655243e-02 3.1877604126930237e-01</leafValues></_>
        <_>
          <internalNodes>
            0 -1 541 2.9925047783763148e-05</internalNodes>
          <leafValues>
            6.2403637915849686e-02 -4.7730794548988342e-01</leafValues></_>
        <_>
          <internalNodes>
            0 -1 602 4.0669238660484552e-04</internalNodes>
          <leafValues>
            4.2490527033805847e-02 -5.9144675731658936e-01</leafValues></_>
        <_>
          <internalNodes>
            0 -1 525 2.3091687762644142e-04</internalNodes>
          <leafValues>
            -1.4513973891735077e-01 2.3314501345157623e-01</leafValues></_>
        <_>
          <internalNodes>
            0 -1 719 3.9272534195333719e-04</internalNodes>
          <leafValues>
            -9.4017989933490753e-02 3.0238056182861328e-01</leafValues></_>
        <_>
          <internalNodes>
            0 -1 393 -1.4128147449810058e-04</internalNodes>
          <leafValues>
            -8.6399728059768677e-01 3.2616645097732544e-02</leafValues></_>
        <_>
          <internalNodes>
            0 -1 613 5.7865184498950839e-04</internalNodes>
          <leafValues>
            -1.1429636180400848e-01 2.5277861952781677e-01</leafValues></_>
        <_>
          <internalNodes>
            0 -1 292 1.2523623183369637e-02</internalNodes>
          <leafValues>
            3.5255610942840576e-02 -7.8932857513427734e-01</leafValues></_>
        <_>
          <internalNodes>
            0 -1 110 -4.1616911767050624e-04</internalNodes>
          <leafValues>
            1.8719990551471710e-01 -1.6719187796115875e-01</leafValues></_>
        <_>
          <internalNodes>
            0 -1 298 2.7373939519748092e-04</internalNodes>
          <leafValues>
            7.8798286616802216e-02 -3.6734655499458313e-01</leafValues></_>
        <_>
          <internalNodes>
            0 -1 583 -4.2180827585980296e-04</internalNodes>
          <leafValues>
            2.7724632620811462e-01 -1.2277444452047348e-01</leafValues></_>
        <_>
          <internalNodes>
            0 -1 21 -1.9677047475852305e-06</internalNodes>
          <leafValues>
            2.1031767129898071e-01 -1.3063836097717285e-01</leafValues></_>
        <_>
          <internalNodes>
            0 -1 647 6.2661390984430909e-05</internalNodes>
          <leafValues>
            1.0130421817302704e-01 -2.7993616461753845e-01</leafValues></_>
        <_>
          <internalNodes>
            0 -1 634 -1.8435595557093620e-03</internalNodes>
          <leafValues>
            1.9190883636474609e-01 -1.4960989356040955e-01</leafValues></_>
        <_>
          <internalNodes>
            0 -1 564 2.6437093765707687e-05</internalNodes>
          <leafValues>
            8.2554101943969727e-02 -3.5506656765937805e-01</leafValues></_>
        <_>
          <internalNodes>
            0 -1 337 -3.9588927756994963e-04</internalNodes>
          <leafValues>
            2.3703067004680634e-01 -1.2870620191097260e-01</leafValues></_>
        <_>
          <internalNodes>
            0 -1 39 -4.9791187047958374e-02</internalNodes>
          <leafValues>
            4.7192412614822388e-01 -6.4936600625514984e-02</leafValues></_>
        <_>
          <internalNodes>
            0 -1 266 -8.0373208038508892e-04</internalNodes>
          <leafValues>
            -8.4775042533874512e-01 3.8411300629377365e-02</leafValues></_>
        <_>
          <internalNodes>
            0 -1 76 -3.3548136707395315e-04</internalNodes>
          <leafValues>
            3.9352312684059143e-01 -8.9168854057788849e-02</leafValues></_>
        <_>
          <internalNodes>
            0 -1 357 2.7572893304750323e-04</internalNodes>
          <leafValues>
            -9.7746960818767548e-02 2.9326760768890381e-01</leafValues></_>
        <_>
          <internalNodes>
            0 -1 411 2.0754989236593246e-03</internalNodes>
          <leafValues>
            -8.9474573731422424e-02 3.3205941319465637e-01</leafValues></_>
        <_>
          <internalNodes>
            0 -1 538 1.5218686894513667e-04</internalNodes>
          <leafValues>
            4.6275209635496140e-02 -6.8874973058700562e-01</leafValues></_>
        <_>
          <internalNodes>
            0 -1 635 2.3645774490432814e-05</internalNodes>
          <leafValues>
            7.1565613150596619e-02 -3.6703872680664062e-01</leafValues></_>
        <_>
          <internalNodes>
            0 -1 336 6.9299355149269104e-02</internalNodes>
          <leafValues>
            4.4626753777265549e-02 -6.0086411237716675e-01</leafValues></_>
        <_>
          <internalNodes>
            0 -1 521 2.9243291355669498e-03</internalNodes>
          <leafValues>
            -1.9415935873985291e-01 1.7888641357421875e-01</leafValues></_>
        <_>
          <internalNodes>
            0 -1 629 1.4453684911131859e-02</internalNodes>
          <leafValues>
            -1.7754063010215759e-01 1.7640100419521332e-01</leafValues></_>
        <_>
          <internalNodes>
            0 -1 432 -2.1678733173757792e-04</internalNodes>
          <leafValues>
            -4.2503830790519714e-01 6.5144382417201996e-02</leafValues></_>
        <_>
          <internalNodes>
            0 -1 8 -3.4030476854240987e-06</internalNodes>
          <leafValues>
            2.1241803467273712e-01 -1.4111013710498810e-01</leafValues></_>
        <_>
          <internalNodes>
            0 -1 8 3.8312555261654779e-06</internalNodes>
          <leafValues>
            -1.2730586528778076e-01 2.2286860644817352e-01</leafValues></_>
        <_>
          <internalNodes>
            0 -1 582 -9.5364448498003185e-05</internalNodes>
          <leafValues>
            2.6293516159057617e-01 -1.0994258522987366e-01</leafValues></_>
        <_>
          <internalNodes>
            0 -1 230 3.3362779504386708e-05</internalNodes>
          <leafValues>
            8.5898704826831818e-02 -3.4623172879219055e-01</leafValues></_>
        <_>
          <internalNodes>
            0 -1 443 4.3977524910587817e-05</internalNodes>
          <leafValues>
            8.5341773927211761e-02 -3.1349092721939087e-01</leafValues></_>
        <_>
          <internalNodes>
            0 -1 237 5.8342528063803911e-04</internalNodes>
          <leafValues>
            -9.7575835883617401e-02 2.9332551360130310e-01</leafValues></_>
        <_>
          <internalNodes>
            0 -1 588 4.6910915989428759e-04</internalNodes>
          <leafValues>
            -9.7408324480056763e-02 2.8000271320343018e-01</leafValues></_>
        <_>
          <internalNodes>
            0 -1 489 5.3440518968272954e-05</internalNodes>
          <leafValues>
            3.3676244318485260e-02 -8.7980180978775024e-01</leafValues></_>
        <_>
          <internalNodes>
            0 -1 757 6.6035514464601874e-05</internalNodes>
          <leafValues>
            -6.9497801363468170e-02 4.5864689350128174e-01</leafValues></_>
        <_>
          <internalNodes>
            0 -1 742 -5.4713268764317036e-03</internalNodes>
          <leafValues>
            -4.1313871741294861e-01 7.2748392820358276e-02</leafValues></_></weakClassifiers></_>
    <!-- stage 14 -->
    <_>
      <maxWeakCount>56</maxWeakCount>
      <stageThreshold>-1.9569917917251587e+00</stageThreshold>
      <weakClassifiers>
        <_>
          <internalNodes>
            0 -1 51 -1.2039650755468756e-04</internalNodes>
          <leafValues>
            -1.9841270148754120e-01 -6.8719553947448730e-01</leafValues></_>
        <_>
          <internalNodes>
            0 -1 718 -4.4574303319677711e-04</internalNodes>
          <leafValues>
            1.0054059326648712e-01 -2.5435125827789307e-01</leafValues></_>
        <_>
          <internalNodes>
            0 -1 168 -1.4628737699240446e-03</internalNodes>
          <leafValues>
            1.0551933944225311e-01 -2.5166383385658264e-01</leafValues></_>
        <_>
          <internalNodes>
            0 -1 174 -2.6322569698095322e-02</internalNodes>
          <leafValues>
            -3.5295492410659790e-01 7.7637851238250732e-02</leafValues></_>
        <_>
          <internalNodes>
            0 -1 300 -4.7720041038701311e-05</internalNodes>
          <leafValues>
            -7.3987805843353271e-01 4.6133864670991898e-02</leafValues></_>
        <_>
          <internalNodes>
            0 -1 262 -1.3938169286120683e-04</internalNodes>
          <leafValues>
            1.7012640833854675e-01 -1.6722726821899414e-01</leafValues></_>
        <_>
          <internalNodes>
            0 -1 672 -3.0687715479871258e-05</internalNodes>
          <leafValues>
            2.6596361398696899e-01 -9.0354956686496735e-02</leafValues></_>
        <_>
          <internalNodes>
            0 -1 787 3.6278283914725762e-06</internalNodes>
          <leafValues>
            -1.7269270122051239e-01 1.6952031850814819e-01</leafValues></_>
        <_>
          <internalNodes>
            0 -1 74 1.0575723648071289e-01</internalNodes>
          <leafValues>
            -6.3343159854412079e-02 4.0435856580734253e-01</leafValues></_>
        <_>
          <internalNodes>
            0 -1 85 -1.7893211543560028e-01</internalNodes>
          <leafValues>
            2.3442748188972473e-01 -1.2148897349834442e-01</leafValues></_>
        <_>
          <internalNodes>
            0 -1 429 3.0653780413558707e-05</internalNodes>
          <leafValues>
            6.1192762106657028e-02 -4.3741163611412048e-01</leafValues></_>
        <_>
          <internalNodes>
            0 -1 707 1.8944669864140451e-04</internalNodes>
          <leafValues>
            -9.9134407937526703e-02 2.9673165082931519e-01</leafValues></_>
        <_>
          <internalNodes>
            0 -1 694 -2.7729087742045522e-04</internalNodes>
          <leafValues>
            -2.9293400049209595e-01 1.0325080156326294e-01</leafValues></_>
        <_>
          <internalNodes>
            0 -1 257 -3.4675633651204407e-04</internalNodes>
          <leafValues>
            1.9023834168910980e-01 -1.4388158917427063e-01</leafValues></_>
        <_>
          <internalNodes>
            0 -1 123 -2.0089630652364576e-06</internalNodes>
          <leafValues>
            1.9383341073989868e-01 -1.5571261942386627e-01</leafValues></_>
        <_>
          <internalNodes>
            0 -1 232 3.2157928217202425e-05</internalNodes>
          <leafValues>
            6.3783206045627594e-02 -4.1860181093215942e-01</leafValues></_>
        <_>
          <internalNodes>
            0 -1 759 -1.7399802345607895e-06</internalNodes>
          <leafValues>
            1.8083831667900085e-01 -1.5202084183692932e-01</leafValues></_>
        <_>
          <internalNodes>
            0 -1 559 5.0870043196482584e-05</internalNodes>
          <leafValues>
            3.9262812584638596e-02 -7.0224535465240479e-01</leafValues></_>
        <_>
          <internalNodes>
            0 -1 732 4.4828714453615248e-04</internalNodes>
          <leafValues>
            -1.1403942108154297e-01 2.5035834312438965e-01</leafValues></_>
        <_>
          <internalNodes>
            0 -1 744 2.8772742371074855e-04</internalNodes>
          <leafValues>
            1.0852225869894028e-01 -2.5741952657699585e-01</leafValues></_>
        <_>
          <internalNodes>
            0 -1 72 5.2763556595891714e-04</internalNodes>
          <leafValues>
            7.5104974210262299e-02 -3.4582495689392090e-01</leafValues></_>
        <_>
          <internalNodes>
            0 -1 531 1.3237004168331623e-04</internalNodes>
          <leafValues>
            -9.1560304164886475e-02 2.9807505011558533e-01</leafValues></_>
        <_>
          <internalNodes>
            0 -1 616 -2.8001773898722604e-05</internalNodes>
          <leafValues>
            -4.1133216023445129e-01 6.5208092331886292e-02</leafValues></_>
        <_>
          <internalNodes>
